svm_type c_svc
kernel_type rbf
gamma 0.111111
nr_class 2
total_sv 68
rho 0.543881
label 2 4
nr_sv 32 36
SV
1 1:-0.111111 2:-0.333333 3:-0.333333 4:-0.111111 5:0.333333 6:1 7:-0.555556 8:-0.777778 9:-1 
1 1:0.111111 2:0.555556 3:0.555556 4:-1 5:-0.555556 6:-0.333333 7:-0.555556 8:0.333333 9:-1 
1 1:-1 2:-1 3:-1 4:-1 5:-0.777778 6:1 7:-0.555556 8:-1 9:-1 
1 1:0.111111 2:-0.777778 3:-1 4:-1 5:-1 6:-1 7:0.333333 8:-1 9:-1 
0.3163404268781873 1:-1 2:-0.555556 3:-0.555556 4:-0.777778 5:-0.777778 6:-1 7:0.333333 8:-0.777778 9:-1 
1 1:0.555556 2:-0.555556 3:-0.555556 4:-1 5:-0.777778 6:-0.777778 7:-0.555556 8:-0.777778 9:-1 
1 1:-0.555556 2:-1 3:-1 4:-0.555556 5:0.555556 6:-1 7:-0.111111 8:0.555556 9:-1 
0.4362802466863288 1:-1 2:-1 3:-1 4:-0.777778 5:-1 6:-0.555556 7:-1 8:-1 9:0.333333 
1 1:0.555556 2:-0.333333 3:-0.333333 4:-0.111111 5:-0.333333 6:0.333333 7:0.333333 8:0.555556 9:-0.777778 
1 1:0.555556 2:-0.333333 3:0.111111 4:-0.555556 5:-0.555556 6:-1 7:-0.333333 8:-0.555556 9:-1 
0.6953710212062505 1:-0.555556 2:-0.555556 3:-0.777778 4:-1 5:-0.555556 6:-1 7:-0.555556 8:0.111111 9:-1 
1 1:-0.111111 2:-1 3:-0.555556 4:-0.555556 5:-0.777778 6:-0.777778 7:-0.777778 8:-0.555556 9:-1 
1 1:0.111111 2:-0.555556 3:-0.555556 4:-0.111111 5:-0.555556 6:1 7:-0.555556 8:-0.111111 9:-0.555556 
1 1:-0.111111 2:0.333333 3:0.333333 4:-1 5:-0.111111 6:0.555556 7:-0.555556 8:-0.333333 9:-1 
1 1:-0.111111 2:-0.555556 3:-0.333333 4:-0.555556 5:-0.333333 6:-0.111111 7:-0.333333 8:0.333333 9:-1 
1 1:0.555556 2:-0.777778 3:-1 4:-1 5:-0.111111 6:-1 7:-1 8:-1 9:-1 
1 1:-0.555556 2:-1 3:-1 4:-1 5:-0.777778 6:-0.111111 7:-0.111111 8:-1 9:-1 
1 1:-0.333333 2:-0.333333 3:-0.333333 4:-0.333333 5:0.111111 6:-0.111111 7:0.333333 8:-0.555556 9:-1 
1 1:-0.555556 2:-0.333333 3:-0.111111 4:-0.555556 5:0.333333 6:-0.555556 7:-0.333333 8:0.111111 9:-1 
1 1:-0.333333 2:-0.333333 3:-0.333333 4:-0.777778 5:-0.777778 6:-0.555556 7:-0.777778 8:-1 9:-1 
1 1:-0.111111 2:-0.555556 3:-0.333333 4:-1 5:-0.333333 6:-1 7:-0.555556 8:-1 9:-1 
1 1:-0.555556 2:-0.555556 3:-0.777778 4:0.111111 5:-0.555556 6:-0.555556 7:-0.555556 8:-0.111111 9:-1 
1 1:-0.111111 2:-0.777778 3:-0.777778 4:-0.777778 5:-0.777778 6:-0.777778 7:-0.555556 8:-0.777778 9:-0.777778 
1 1:-0.111111 2:-0.555556 3:0.111111 4:-1 5:-0.777778 6:-1 7:-1 8:-1 9:-1 
1 1:0.111111 2:0.777778 3:0.333333 4:-0.111111 5:-0.111111 6:0.555556 7:-0.333333 8:-0.777778 9:-1 
1 1:-0.111111 2:-0.777778 3:-0.777778 4:-0.333333 5:-0.777778 6:-0.333333 7:-1 8:-1 9:-1 
1 1:-0.111111 2:-1 3:-0.777778 4:1 5:-0.333333 6:-0.111111 7:-0.777778 8:-1 9:-1 
1 1:-0.333333 2:-0.333333 3:-0.777778 4:-1 5:-0.777778 6:-0.111111 7:-0.777778 8:-1 9:-0.777778 
1 1:-0.333333 2:-0.555556 3:-1 4:-1 5:-0.777778 6:-1 7:-0.333333 8:0.555556 9:-1 
1 1:0.111111 2:-0.555556 3:-0.555556 4:-0.555556 5:-0.555556 6:-0.777778 7:0.111111 8:-1 9:-1 
0.492056125403039 1:0.333333 2:-1 3:-0.777778 4:-0.555556 5:-0.777778 6:-1 7:-0.777778 8:-1 9:-1 
1 1:-0.111111 2:-0.333333 3:-0.111111 4:-1 5:0.555556 6:-1 7:-0.555556 8:0.111111 9:-1 
-1 1:-0.111111 2:-0.555556 3:-0.555556 4:-0.555556 5:-0.777778 6:-0.555556 7:-0.333333 8:-0.333333 9:-1 
-1 1:0.333333 2:-0.333333 3:0.111111 4:-0.333333 5:0.111111 6:-1 7:-0.333333 8:-0.555556 9:-1 
-1 1:-0.111111 2:-0.777778 3:-0.555556 4:-0.333333 5:-0.777778 6:0.333333 7:-0.555556 8:0.111111 9:-1 
-1 1:-0.777778 2:-0.111111 3:-0.555556 4:-0.555556 5:0.111111 6:0.333333 7:0.333333 8:-0.111111 9:-1 
-0.2612134933757729 1:1 2:-0.333333 3:-0.555556 4:-1 5:-0.555556 6:-0.555556 7:0.111111 8:-0.111111 9:-0.777778 
-1 1:-0.111111 2:0.111111 3:-0.111111 4:0.111111 5:1 6:-1 7:-0.555556 8:-1 9:-1 
-0.7885483124836675 1:0.777778 2:-0.111111 3:0.555556 4:-1 5:-0.777778 6:-0.555556 7:-0.777778 8:-1 9:-0.111111 
-1 1:-0.111111 2:-0.555556 3:-0.555556 4:-0.333333 5:-0.777778 6:-0.333333 7:-0.555556 8:-0.333333 9:-1 
-1 1:0.555556 2:-0.777778 3:-0.333333 4:-1 5:-0.111111 6:-1 7:-0.111111 8:-0.333333 9:-0.333333 
-0.5800370788583574 1:-0.111111 2:-0.777778 3:-0.555556 4:-1 5:0.111111 6:1 7:-0.111111 8:-1 9:-1 
-1 1:0.777778 2:-0.111111 3:-0.111111 4:-0.777778 5:-0.777778 6:-0.777778 7:-0.111111 8:-1 9:-1 
-1 1:-0.111111 2:-0.555556 3:-0.111111 4:-0.111111 5:-0.555556 6:-0.555556 7:-0.333333 8:1 9:-1 
-1 1:0.111111 2:-0.555556 3:-0.333333 4:-1 5:-0.111111 6:-0.777778 7:-0.555556 8:0.777778 9:-1 
-1 1:1 2:0.111111 3:-0.333333 4:-1 5:-0.555556 6:-0.333333 7:-0.555556 8:-0.777778 9:-0.555556 
-1 1:-0.555556 2:-0.555556 3:0.111111 4:-0.333333 5:-0.111111 6:0.555556 7:-0.333333 8:-0.333333 9:-1 
-1 1:-0.777778 2:-0.555556 3:-0.333333 4:-0.333333 5:-0.777778 6:-0.111111 7:-0.777778 8:-0.111111 9:-1 
-1 1:0.555556 2:-0.777778 3:-0.555556 4:-1 5:0.111111 6:-0.555556 7:0.333333 8:-1 9:-1 
-1 1:0.333333 2:-0.555556 3:-0.333333 4:-0.333333 5:-0.555556 6:-0.555556 7:-0.555556 8:-0.777778 9:0.333333 
-1 1:-0.555556 2:-0.333333 3:-0.111111 4:-0.777778 5:0.111111 6:0.555556 7:-0.333333 8:-1 9:-1 
-0.4647653071047028 1:-0.111111 2:-0.111111 3:-0.111111 4:0.111111 5:-0.555556 6:1 7:-0.555556 8:-1 9:-1 
-1 1:-0.111111 2:-0.555556 3:-0.555556 4:-0.555556 5:0.111111 6:1 7:-0.555556 8:-1 9:-1 
-1 1:-0.333333 2:-1 3:-1 4:-0.555556 5:-1 6:-0.111111 7:-0.777778 8:-1 9:-1 
-0.7757725536995669 1:-0.555556 2:-0.555556 3:-0.111111 4:-0.777778 5:-0.555556 6:1 7:0.333333 8:-1 9:-1 
-1 1:0.333333 2:-0.777778 3:-0.333333 4:-1 5:-0.555556 6:-0.333333 7:-0.555556 8:-0.555556 9:-1 
-0.01769596597196349 1:1 2:1 3:1 4:1 5:1 6:1 7:-0.333333 8:1 9:1 
-1 1:0.111111 2:-1 3:-0.555556 4:-1 5:-0.333333 6:-0.111111 7:-0.111111 8:1 9:-1 
-0.1600352794886801 1:0.555556 2:1 3:-0.555556 4:-0.777778 5:0.111111 6:-0.333333 7:-0.555556 8:1 9:-1 
-1 1:-0.555556 2:-0.333333 3:-0.333333 4:1 5:-0.111111 6:-1 7:-0.555556 8:-0.555556 9:-1 
-0.3885157958246884 1:-0.333333 2:-0.777778 3:-0.555556 4:-0.111111 5:-0.555556 6:0.555556 7:0.333333 8:0.111111 9:-1 
-1 1:-0.111111 2:-0.555556 3:-0.555556 4:-1 5:-0.555556 6:-0.555556 7:-0.555556 8:-0.555556 9:-0.555556 
-0.07483124574835666 1:1 2:1 3:1 4:-1 5:0.111111 6:-1 7:-0.777778 8:0.555556 9:-1 
-1 1:1 2:-0.777778 3:-0.777778 4:-1 5:-0.777778 6:0.111111 7:-1 8:-1 9:-0.777778 
-1 1:-0.555556 2:0.111111 3:-0.333333 4:1 5:-0.555556 6:-0.555556 7:-0.555556 8:-0.333333 9:-1 
-1 1:0.111111 2:-0.555556 3:-0.777778 4:-1 5:-0.555556 6:-0.333333 7:-0.333333 8:-1 9:-1 
-0.4286327876180494 1:-0.333333 2:1 3:0.555556 4:-0.111111 5:-0.333333 6:-1 7:1 8:-1 9:-1 
-1 1:-0.111111 2:0.333333 3:-0.333333 4:-1 5:0.111111 6:-1 7:0.333333 8:1 9:-0.555556 
