svm_type c_svc
kernel_type rbf
gamma 0.00139665
nr_class 2
total_sv 44
rho -0.722172
label 0 1
nr_sv 26 18
SV
0.318488751319655 68:-1 69:-1 94:-1 95:-1 96:-1 97:-1 98:-1 99:-1 100:-1 101:-1 102:-1 103:-1 104:-1 105:-1 106:-1 107:-1 108:-1 120:-1 121:-1 122:-1 123:-1 124:-1 125:-1 126:-1 127:-1 128:-1 129:-1 130:-1 131:-1 132:-1 133:-1 134:-1 135:-1 136:-1 147:-1 148:-1 149:-1 150:-1 151:-1 152:-1 153:-1 154:-1 155:-1 156:-1 157:-1 158:-1 159:-1 160:-1 161:-1 162:-1 163:-1 164:-1 165:-1 174:-1 175:-1 176:-1 177:-1 178:-1 179:-1 180:-0.333333 181:-0.0901961 182:-0.490196 183:-0.552941 184:-0.811765 185:-0.866667 186:-1 187:-1 188:-1 189:-1 190:-1 191:-1 192:-1 193:-1 202:-1 203:-1 204:-1 205:-1 206:-0.866667 207:0.317647 208:0.835294 209:0.992157 210:0.984314 211:0.984314 212:0.984314 213:0.843137 214:0.0509804 215:-0.341176 216:-1 217:-1 218:-1 219:-1 220:-1 221:-1 222:-1 229:-1 230:-1 231:-1 232:-1 233:-1 234:0.0196078 235:0.992157 236:0.0666667 237:-0.270588 238:0.678431 239:0.545098 240:0.843137 241:0.992157 242:0.992157 243:0.992157 244:0.458824 245:-0.0666667 246:-1 247:-1 248:-1 249:-1 250:-1 257:-1 258:-1 259:-1 260:-1 261:0.286275 262:0.968627 263:0.0196078 264:-0.952941 265:-1 266:-0.898039 267:-0.968627 268:-0.866667 269:-0.560784 270:-0.160784 271:0.521569 272:0.984314 273:0.945098 274:-0.309804 275:-1 276:-1 277:-1 278:-1 285:-1 286:-1 287:-1 288:-0.333333 289:0.992157 290:0.286275 291:-0.929412 292:-1 293:-1 294:-1 295:-1 296:-1 297:-1 298:-1 299:-0.960784 300:-0.380392 301:0.992157 302:0.913725 303:-0.372549 304:-1 305:-1 306:-1 313:-1 314:-1 315:-0.333333 316:0.835294 317:0.788235 318:-0.882353 319:-1 320:-1 321:-1 322:-1 323:-1 324:-1 325:-1 326:-1 327:-1 328:-1 329:-0.262745 330:0.921569 331:0.733333 332:-0.607843 333:-1 334:-1 341:-1 342:-0.629921 343:0.992157 344:0.992157 345:-0.466667 346:-1 347:-1 348:-1 349:-1 350:-1 351:-1 352:-1 353:-1 354:-1 355:-1 356:-1 357:-1 358:-0.2 359:0.890196 360:0.458824 361:-1 362:-1 369:-1 370:-0.105882 371:0.984314 372:0.45098 373:-1 374:-1 375:-1 376:-1 377:-1 378:-1 379:-1 380:-1 381:-1 382:-1 383:-1 384:-1 385:-1 386:-1 387:0.623529 388:0.984314 389:-1 390:-1 397:-0.74902 398:0.890196 399:0.835294 400:-0.898039 401:-1 402:-1 403:-1 404:-1 405:-1 406:-1 407:-1 408:-1 409:-1 410:-1 411:-1 412:-1 413:-1 414:-0.960784 415:0.662745 416:0.984314 417:-1 418:-1 425:-0.45098 426:0.984314 427:0.270588 428:-1 429:-1 430:-1 431:-1 432:-1 433:-1 434:-1 435:-1 436:-1 437:-1 438:-1 439:-1 440:-1 441:-1 442:0.152941 443:0.984314 444:0.984314 445:-1 446:-1 453:0.733333 454:0.992157 455:-0.639216 456:-1 457:-1 458:-1 459:-1 460:-1 461:-1 462:-1 463:-1 464:-1 465:-1 466:-1 467:-1 468:-0.796078 469:0.00392157 470:0.921569 471:0.992157 472:0.0666667 473:-1 474:-1 481:0.992157 482:0.647059 483:-0.968627 484:-1 485:-1 486:-1 487:-1 488:-1 489:-1 490:-1 491:-1 492:-1 493:-1 494:-1 495:-0.827451 496:0.482353 497:0.992157 498:0.984314 499:0.819608 500:-0.560784 501:-1 502:-1 508:-1 509:0.661417 510:0.615686 511:-1 512:-1 513:-1 514:-1 515:-1 516:-1 517:-1 518:-1 519:-1 520:-0.929412 521:-0.945098 522:-0.34902 523:0.654902 524:0.984314 525:0.992157 526:0.819608 527:-0.545098 528:-1 529:-1 530:-1 536:-1 537:0.272727 538:0.882353 539:-0.47451 540:-1 541:-1 542:-1 543:-1 544:-1 545:-1 546:-0.6 547:-0.207843 548:0.639216 549:0.6 550:0.788235 551:0.32549 552:0.984314 553:0.529412 554:-0.882353 555:-1 556:-1 557:-1 564:-1 565:-0.44664 566:0.992157 567:0.921569 568:0.262745 569:-0.45098 570:0.2 571:0.262745 572:0.262745 573:0.733333 574:0.992157 575:0.992157 576:0.992157 577:1 578:0.992157 579:0.678431 580:-0.270588 581:-1 582:-1 583:-1 584:-1 585:-1 592:-1 593:-0.944223 594:-0.422925 595:-0.0980392 596:-0.0980392 597:-0.0980392 598:-0.0980392 599:-0.0980392 600:-0.0980392 601:-0.0980392 602:-0.0980392 603:-0.0980392 604:-0.0980392 605:-0.0980392 606:-0.231373 607:-0.898039 608:-1 609:-1 610:-1 611:-1 612:-1 620:-1 621:-1 622:-1 623:-1 624:-1 625:-1 626:-1 627:-1 628:-1 629:-1 630:-1 631:-1 632:-1 633:-1 634:-1 635:-1 636:-1 637:-1 638:-1 639:-1 640:-1 649:-1 650:-1 651:-1 652:-1 653:-1 654:-1 655:-1 656:-1 657:-1 658:-1 659:-1 660:-1 661:-1 662:-1 663:-1 664:-1 665:-1 666:-1 667:-1 678:-1 679:-1 680:-1 681:-1 682:-1 683:-1 684:-1 685:-1 686:-1 687:-1 688:-1 689:-1 690:-1 691:-1 692:-1 693:-1 694:-1 711:-1 712:-1 713:-1 714:-1 715:-1 716:-1 
0.8252459102531344 68:-1 69:-1 94:-1 95:-1 96:-1 97:-1 98:-1 99:-1 100:-1 101:-1 102:-1 103:-1 104:-1 105:-1 106:-1 107:-1 108:-1 120:-1 121:-1 122:-1 123:-1 124:-1 125:-0.32549 126:0.529412 127:-0.0196078 128:-1 129:-1 130:-1 131:-1 132:-1 133:-1 134:-1 135:-1 136:-1 147:-1 148:-1 149:-1 150:-1 151:-1 152:-0.678431 153:0.796078 154:0.992157 155:0.772549 156:-0.827451 157:-1 158:-1 159:-1 160:-1 161:-1 162:-1 163:-1 164:-1 165:-1 174:-1 175:-1 176:-1 177:-1 178:-1 179:-1 180:0.45098 181:0.992157 182:0.6 183:0.984314 184:-0.607843 185:-1 186:-1 187:-1 188:-1 189:-1 190:-1 191:-1 192:-1 193:-1 202:-1 203:-1 204:-1 205:-1 206:-1 207:-0.356863 208:0.921569 209:0.34902 210:-0.937255 211:0.592157 212:0.0666667 213:-1 214:-1 215:-1 216:-1 217:-1 218:-1 219:-1 220:-1 221:-1 222:-1 229:-1 230:-1 231:-1 232:-1 233:-1 234:-1 235:0.803922 236:0.992157 237:-0.333333 238:-0.247059 239:0.741176 240:-0.364706 241:-1 242:-1 243:-1 244:-1 245:-1 246:-1 247:-1 248:-1 249:-1 250:-1 257:-1 258:-1 259:-1 260:-1 261:-1 262:-0.694118 263:0.905882 264:0.654902 265:-0.945098 266:0.529412 267:0.992157 268:0.505882 269:-0.811765 270:-1 271:-1 272:-1 273:-1 274:-1 275:-1 276:-1 277:-1 278:-1 285:-1 286:-1 287:-1 288:-1 289:-1 290:0.160784 291:0.992157 292:-0.239216 293:-1 294:-0.286275 295:0.72549 296:0.992157 297:0.866667 298:-0.247059 299:-1 300:-1 301:-1 302:-1 303:-1 304:-1 305:-1 306:-1 313:-1 314:-1 315:-1 316:-1 317:-0.905882 318:0.717647 319:0.992157 320:-0.45098 321:-1 322:-1 323:-0.929412 324:0.0745098 325:1 326:0.992157 327:0.145098 328:-0.960784 329:-1 330:-1 331:-1 332:-1 333:-1 334:-1 341:-1 342:-1 343:-1 344:-1 345:-0.835294 346:0.992157 347:0.905882 348:-0.654902 349:-1 350:-1 351:-1 352:-0.984314 353:-0.527559 354:0.756863 355:0.992157 356:-0.160784 357:-1 358:-1 359:-1 360:-1 361:-1 362:-1 369:-1 370:-1 371:-1 372:-1 373:-0.835294 374:0.992157 375:0.756863 376:-1 377:-1 378:-1 379:-1 380:-1 381:-1 382:-0.615686 383:0.607843 384:0.984314 385:0.0352941 386:-1 387:-1 388:-1 389:-1 390:-1 397:-1 398:-1 399:-1 400:-1 401:-0.2 402:0.992157 403:0.121569 404:-1 405:-1 406:-1 407:-1 408:-1 409:-1 410:-1 411:-0.521569 412:0.882353 413:0.364706 414:-1 415:-1 416:-1 417:-1 418:-1 425:-1 426:-1 427:-1 428:-1 429:-0.0509804 430:0.992157 431:-0.207843 432:-1 433:-1 434:-1 435:-1 436:-1 437:-1 438:-1 439:-1 440:-0.0117647 441:0.513725 442:-0.960784 443:-1 444:-1 445:-1 446:-1 453:-1 454:-1 455:-1 456:-1 457:-0.0980392 458:0.992157 459:-0.756863 460:-1 461:-1 462:-1 463:-1 464:-1 465:-1 466:-1 467:-1 468:0.294118 469:0.992157 470:-0.843137 471:-1 472:-1 473:-1 474:-1 481:-1 482:-1 483:-1 484:-1 485:-0.835294 486:0.992157 487:-0.0196078 488:-1 489:-1 490:-1 491:-1 492:-1 493:-1 494:-1 495:-1 496:-0.0117647 497:0.992157 498:-0.843137 499:-1 500:-1 501:-1 502:-1 508:-1 509:-1 510:-1 511:-1 512:-1 513:-0.835294 514:0.992157 515:0.0509804 516:-1 517:-1 518:-1 519:-1 520:-1 521:-1 522:-1 523:-1 524:0.0588235 525:0.992157 526:-0.843137 527:-1 528:-1 529:-1 530:-1 536:-1 537:-1 538:-1 539:-1 540:-1 541:-0.835294 542:0.992157 543:0.756863 544:-1 545:-1 546:-1 547:-1 548:-1 549:-1 550:-1 551:-0.607843 552:0.929412 553:0.796078 554:-0.890196 555:-1 556:-1 557:-1 564:-1 565:-1 566:-1 567:-1 568:-1 569:-0.921569 570:0.662745 571:0.796078 572:-0.921569 573:-1 574:-1 575:-1 576:-1 577:-1 578:-1 579:-0.443137 580:0.968627 581:-0.121569 582:-1 583:-1 584:-1 585:-1 592:-1 593:-1 594:-1 595:-1 596:-1 597:-1 598:0.372549 599:0.992157 600:-0.176471 601:-1 602:-1 603:-1 604:-1 605:-1 606:-1 607:0.137255 608:0.796078 609:-1 610:-1 611:-1 612:-1 620:-1 621:-1 622:-1 623:-1 624:-1 625:-1 626:-0.0666667 627:0.992157 628:0.443137 629:-0.976471 630:-1 631:-1 632:-1 633:-1 634:-0.788235 635:0.709804 636:0.207843 637:-1 638:-1 639:-1 640:-1 649:-1 650:-1 651:-1 652:-1 653:-1 654:-0.866667 655:0.85098 656:0.992157 657:-0.262745 658:-1 659:-1 660:-1 661:-1 662:0.207843 663:0.560784 664:-0.944882 665:-1 666:-1 667:-1 678:-1 679:-1 680:-1 681:-1 682:-1 683:-1 684:-1 685:-1 686:-1 687:-1 688:-1 689:-1 690:-1 691:-1 692:-1 693:-1 694:-1 711:-1 712:-1 713:-1 714:-1 715:-1 716:-1 
0.4297780488491575 68:-1 69:-1 94:-1 95:-1 96:-1 97:-1 98:-1 99:-1 100:-1 101:-1 102:-1 103:-1 104:-1 105:-1 106:-1 107:-1 108:-1 120:1 121:1 122:0.660079 123:1 124:0.435294 125:-0.47451 126:-1 127:-1 128:-1 129:-1 130:-1 131:-1 132:-1 133:-1 134:-1 135:-1 136:-1 147:-1 148:1 149:1 150:1 151:0.529412 152:0.615686 153:0.921569 154:0.45098 155:-0.443137 156:-1 157:-1 158:-1 159:-1 160:-1 161:-1 162:-1 163:-1 164:-1 165:-1 174:-1 175:-1 176:0.683794 177:1 178:0.435294 179:-0.866667 180:-0.835294 181:-0.215686 182:0.921569 183:0.898039 184:-0.113725 185:-0.788235 186:-1 187:-1 188:-1 189:-1 190:-1 191:-1 192:-1 193:-1 202:-1 203:-0.417323 204:0.92126 205:0.661417 206:-0.843137 207:-1 208:-1 209:-1 210:-0.0352941 211:0.984314 212:0.984314 213:0.560784 214:-0.811765 215:-1 216:-1 217:-1 218:-1 219:-1 220:-1 221:-1 222:-1 229:-1 230:-1 231:-0.233202 232:0.984314 233:0.552941 234:-1 235:-1 236:-1 237:-1 238:-0.772549 239:0.513725 240:0.913725 241:0.984314 242:0.623529 243:-0.176471 244:-0.984314 245:-1 246:-1 247:-1 248:-1 249:-1 250:-1 257:-1 258:-1 259:-0.239216 260:0.992126 261:0.490196 262:-1 263:-1 264:-1 265:-1 266:-1 267:-1 268:-0.411765 269:0.498039 270:0.882353 271:0.984314 272:-0.207843 273:-0.984314 274:-1 275:-1 276:-1 277:-1 278:-1 285:-1 286:-1 287:-0.23622 288:0.984314 289:-0.521569 290:-1 291:-1 292:-1 293:-1 294:-1 295:-1 296:-1 297:-1 298:-0.968627 299:0.458824 300:0.984314 301:-0.733333 302:-1 303:-1 304:-1 305:-1 306:-1 313:-1 314:-1 315:-0.239216 316:0.984314 317:-0.521569 318:-1 319:-1 320:-1 321:-1 322:-1 323:-1 324:-1 325:-1 326:-1 327:-0.976471 328:0.890196 329:0.592157 330:-0.811765 331:-1 332:-1 333:-1 334:-1 341:-1 342:-1 343:-0.239216 344:0.984314 345:-0.521569 346:-1 347:-1 348:-1 349:-1 350:-1 351:-1 352:-1 353:-1 354:-1 355:-1 356:-0.803922 357:0.74902 358:0.388235 359:-1 360:-1 361:-1 362:-1 369:-1 370:-1 371:-0.239216 372:0.984314 373:-0.521569 374:-1 375:-1 376:-1 377:-1 378:-1 379:-1 380:-1 381:-1 382:-1 383:-1 384:-1 385:0.435294 386:0.898039 387:-0.521569 388:-1 389:-1 390:-1 397:-1 398:-1 399:-0.239216 400:0.984314 401:-0.521569 402:-1 403:-1 404:-1 405:-1 406:-1 407:-1 408:-1 409:-1 410:-1 411:-1 412:-1 413:-0.34902 414:0.984314 415:0.372549 416:-1 417:-1 418:-1 425:-1 426:-1 427:-0.239216 428:0.984314 429:-0.521569 430:-1 431:-1 432:-1 433:-1 434:-1 435:-1 436:-1 437:-1 438:-1 439:-1 440:-1 441:-0.772549 442:0.709804 443:0.662745 444:-1 445:-1 446:-1 453:-1 454:-1 455:-0.670588 456:0.803922 457:0.0901961 458:-1 459:-1 460:-1 461:-1 462:-1 463:-1 464:-1 465:-1 466:-1 467:-1 468:-1 469:-1 470:0.560784 471:0.670588 472:-0.976471 473:-1 474:-1 481:-1 482:-1 483:-1 484:0.670588 485:0.552941 486:-1 487:-1 488:-1 489:-1 490:-1 491:-1 492:-1 493:-1 494:-1 495:-1 496:-1 497:-0.678431 498:0.772549 499:0.984314 500:-0.247059 501:-1 502:-1 508:-1 509:-1 510:-1 511:-1 512:0.670588 513:0.552941 514:-1 515:-1 516:-1 517:-1 518:-1 519:-1 520:-1 521:-1 522:-1 523:-1 524:-1 525:0.0823529 526:0.984314 527:0.411765 528:-0.552941 529:-1 530:-1 536:-1 537:-1 538:-1 539:-1 540:0.317647 541:0.929412 542:-0.0901961 543:-1 544:-1 545:-1 546:-1 547:-1 548:-1 549:-1 550:-1 551:-1 552:-0.294118 553:0.952941 554:0.827451 555:-0.6 556:-1 557:-1 564:-1 565:-1 566:-1 567:-1 568:-0.866667 569:0.607843 570:0.929412 571:-0.0980392 572:-1 573:-1 574:-1 575:-1 576:-1 577:-1 578:-1 579:-0.756863 580:0.0980392 581:0.984314 582:0.231373 583:-1 584:-1 585:-1 592:-1 593:-1 594:-1 595:-1 596:-1 597:-0.552941 598:0.356863 599:0.952941 600:-0.145098 601:-0.670588 602:-0.960784 603:-1 604:-1 605:-0.960784 606:-0.639216 607:0.686275 608:0.984314 609:0.882353 610:-0.647059 611:-1 612:-1 620:-1 621:-1 622:-1 623:-1 624:-1 625:-1 626:-0.898039 627:0.388235 628:0.905882 629:0.984314 630:0.317647 631:0.239216 632:0.239216 633:0.317647 634:0.984314 635:0.984314 636:0.827451 637:-0.34902 638:-1 639:-1 640:-1 649:-1 650:-1 651:-1 652:-1 653:-1 654:-1 655:-1 656:-0.529412 657:-0.0901961 658:0.286275 659:0.984314 660:0.984314 661:0.984314 662:0.952941 663:-0.0901961 664:-0.952756 665:-1 666:-1 667:-1 678:-1 679:-1 680:-1 681:-1 682:-1 683:-1 684:-1 685:-1 686:-1 687:-1 688:-1 689:-1 690:-1 691:-1 692:-1 693:-1 694:-1 711:-1 712:-1 713:-1 714:-1 715:-1 716:-1 
1 68:-1 69:-1 94:-1 95:-1 96:-1 97:-1 98:-1 99:-1 100:-1 101:-1 102:-1 103:-1 104:-1 105:-1 106:-1 107:-1 108:-1 120:-1 121:-1 122:-1 123:-1 124:-1 125:-1 126:-1 127:-1 128:-1 129:-1 130:-1 131:-1 132:-1 133:-1 134:-1 135:-1 136:-1 147:-1 148:-1 149:-1 150:-1 151:-1 152:-1 153:-1 154:-0.788235 155:0.670588 156:0.45098 157:0.215686 158:-0.678431 159:-1 160:-1 161:-1 162:-1 163:-1 164:-1 165:-1 174:-1 175:-1 176:-1 177:-1 178:-1 179:-1 180:-1 181:-0.984314 182:0.419608 183:0.858824 184:0.270588 185:0.85098 186:0.521569 187:-0.890196 188:-1 189:-1 190:-1 191:-1 192:-1 193:-1 202:-1 203:-1 204:-1 205:-1 206:-1 207:-1 208:-1 209:-0.733333 210:0.992157 211:0.254902 212:-1 213:-0.74902 214:0.898039 215:-0.0823529 216:-1 217:-1 218:-1 219:-1 220:-1 221:-1 222:-1 229:-1 230:-1 231:-1 232:-1 233:-1 234:-1 235:-1 236:-1 237:-0.215686 238:0.780392 239:-0.537255 240:-1 241:-1 242:0.435294 243:0.537255 244:-1 245:-1 246:-1 247:-1 248:-1 249:-1 250:-1 257:-1 258:-1 259:-1 260:-1 261:-1 262:-1 263:-1 264:-0.827451 265:0.890196 266:0.215686 267:-1 268:-1 269:-1 270:-0.568627 271:0.537255 272:-1 273:-1 274:-1 275:-1 276:-1 277:-1 278:-1 285:-1 286:-1 287:-1 288:-1 289:-1 290:-1 291:-1 292:-0.764706 293:0.968627 294:-0.482353 295:-1 296:-1 297:-1 298:-0.568627 299:0.733333 300:-0.913725 301:-1 302:-1 303:-1 304:-1 305:-1 306:-1 313:-1 314:-1 315:-1 316:-1 317:-1 318:-1 319:-1 320:-0.254902 321:0.733333 322:-1 323:-1 324:-1 325:-1 326:-0.568627 327:0.992157 328:-0.803922 329:-1 330:-1 331:-1 332:-1 333:-1 334:-1 341:-1 342:-1 343:-1 344:-1 345:-1 346:-1 347:-1 348:0.184314 349:0.427451 350:-1 351:-1 352:-1 353:-1 354:-0.764706 355:0.890196 356:-0.592157 357:-1 358:-1 359:-1 360:-1 361:-1 362:-1 369:-1 370:-1 371:-1 372:-1 373:-1 374:-1 375:-0.898039 376:0.756863 377:-0.00787402 378:-1 379:-1 380:-1 381:-1 382:-0.788235 383:0.882353 384:-0.803922 385:-1 386:-1 387:-1 388:-1 389:-1 390:-1 397:-1 398:-1 399:-1 400:-1 401:-1 402:-1 403:-0.796078 404:0.992157 405:-0.576471 406:-1 407:-1 408:-1 409:-1 410:-0.568627 411:0.992157 412:-0.803922 413:-1 414:-1 415:-1 416:-1 417:-1 418:-1 425:-1 426:-1 427:-1 428:-1 429:-1 430:-1 431:-0.678431 432:0.952941 433:-0.654902 434:-1 435:-1 436:-1 437:-1 438:-0.568627 439:0.607843 440:-0.968627 441:-1 442:-1 443:-1 444:-1 445:-1 446:-1 453:-1 454:-1 455:-1 456:-1 457:-1 458:-1 459:-0.576471 460:0.771654 461:-1 462:-1 463:-1 464:-1 465:-1 466:-0.435294 467:0.537255 468:-1 469:-1 470:-1 471:-1 472:-1 473:-1 474:-1 481:-1 482:-1 483:-1 484:-1 485:-1 486:-1 487:-0.576471 488:0.764706 489:-1 490:-1 491:-1 492:-1 493:-1 494:0.0823529 495:0.537255 496:-1 497:-1 498:-1 499:-1 500:-1 501:-1 502:-1 508:-1 509:-1 510:-1 511:-1 512:-1 513:-1 514:-1 515:-0.137255 516:0.764706 517:-1 518:-1 519:-1 520:-1 521:-1 522:0.45098 523:0.168627 524:-1 525:-1 526:-1 527:-1 528:-1 529:-1 530:-1 536:-1 537:-1 538:-1 539:-1 540:-1 541:-1 542:-1 543:-0.137255 544:0.764706 545:-1 546:-1 547:-1 548:-1 549:-0.639216 550:0.866667 551:-0.764706 552:-1 553:-1 554:-1 555:-1 556:-1 557:-1 564:-1 565:-1 566:-1 567:-1 568:-1 569:-1 570:-1 571:-0.529412 572:0.764706 573:-1 574:-1 575:-1 576:-0.898039 577:0.458824 578:0.00392157 579:-1 580:-1 581:-1 582:-1 583:-1 584:-1 585:-1 592:-1 593:-1 594:-1 595:-1 596:-1 597:-1 598:-1 599:-0.796078 600:0.827451 601:-0.87451 602:-1 603:-1 604:-0.0509804 605:0.756863 606:-0.898039 607:-1 608:-1 609:-1 610:-1 611:-1 612:-1 620:-1 621:-1 622:-1 623:-1 624:-1 625:-1 626:-1 627:-0.796078 628:1 629:-0.380392 630:-1 631:-0.0745098 632:0.984314 633:0.00392157 634:-1 635:-1 636:-1 637:-1 638:-1 639:-1 640:-1 649:-1 650:-1 651:-1 652:-1 653:-1 654:-1 655:-0.858824 656:0.85098 657:0.662745 658:0.592157 659:0.984314 660:0.0196078 661:-0.984314 662:-1 663:-1 664:-1 665:-1 666:-1 667:-1 678:-1 679:-1 680:-1 681:-1 682:-1 683:-1 684:-0.606299 685:0.858824 686:0.466667 687:-0.301961 688:-0.992157 689:-1 690:-1 691:-1 692:-1 693:-1 694:-1 711:-1 712:-1 713:-1 714:-1 715:-1 716:-1 
0.3642863455445384 68:-1 69:-1 94:-1 95:-1 96:-1 97:-1 98:-1 99:-1 100:-1 101:-1 102:-1 103:-1 104:-1 105:-1 106:-1 107:-1 108:-1 120:-1 121:-1 122:-1 123:-1 124:-1 125:-1 126:-1 127:-1 128:-1 129:-1 130:-1 131:-1 132:-1 133:-1 134:-1 135:-1 136:-1 147:-1 148:-1 149:-1 150:-1 151:-1 152:-1 153:-1 154:-1 155:-1 156:-1 157:-1 158:-1 159:-1 160:-1 161:-1 162:-1 163:-1 164:-1 165:-1 174:-1 175:-1 176:-1 177:-1 178:-1 179:-1 180:-1 181:-1 182:-0.960784 183:-0.85098 184:-0.85098 185:-0.960784 186:-1 187:-1 188:-1 189:-1 190:-1 191:-1 192:-1 193:-1 202:-1 203:-1 204:-1 205:-1 206:-1 207:-1 208:-1 209:-0.960784 210:0.0745098 211:0.992157 212:0.992157 213:0.00392157 214:-1 215:-1 216:-1 217:-1 218:-0.913725 219:-0.889764 220:-1 221:-1 222:-1 229:-1 230:-1 231:-1 232:-1 233:-1 234:-1 235:-1 236:-0.662745 237:0.372549 238:0.992157 239:0.992157 240:0.545098 241:-0.45098 242:-1 243:-1 244:-1 245:-1 246:-0.160784 247:0.223529 248:-0.984252 249:-1 250:-1 257:-1 258:-1 259:-1 260:-1 261:-1 262:-1 263:-0.662745 264:0.74902 265:0.992157 266:0.929412 267:-0.0117647 268:-0.819608 269:-1 270:-1 271:-1 272:-1 273:-1 274:-0.160784 275:0.992157 276:-0.283465 277:-1 278:-1 285:-1 286:-1 287:-1 288:-1 289:-1 290:-0.184314 291:0.74902 292:0.992157 293:0.756863 294:0.286275 295:-1 296:-1 297:-1 298:-1 299:-1 300:-1 301:-1 302:-0.301961 303:0.968627 304:0.223529 305:-0.992126 306:-1 313:-1 314:-1 315:-1 316:-0.968627 317:-0.027451 318:0.756863 319:0.992157 320:0.568627 321:-0.796078 322:-1 323:-1 324:-1 325:-1 326:-1 327:-1 328:-1 329:-1 330:-1 331:0.858824 332:0.992157 333:-0.76378 334:-1 341:-1 342:-1 343:-0.976471 344:-0.443137 345:0.992157 346:0.992157 347:0.568627 348:-0.803922 349:-1 350:-1 351:-1 352:-1 353:-1 354:-1 355:-1 356:-1 357:-1 358:-1 359:0.858824 360:0.992157 361:0.023622 362:-1 369:-1 370:-1 371:-0.176471 372:0.992157 373:0.992157 374:0.819608 375:-0.803922 376:-1 377:-1 378:-1 379:-1 380:-1 381:-1 382:-1 383:-1 384:-1 385:-1 386:-1 387:0.615686 388:0.992157 389:0.023622 390:-1 397:-1 398:-1 399:0.0745098 400:0.992157 401:0.945098 402:-0.192157 403:-1 404:-1 405:-1 406:-1 407:-1 408:-1 409:-1 410:-1 411:-1 412:-1 413:-1 414:-1 415:-0.113725 416:0.992157 417:0.278431 418:-1 425:-1 426:-0.670588 427:0.796078 428:0.952941 429:-0.2 430:-1 431:-1 432:-1 433:-1 434:-1 435:-1 436:-1 437:-1 438:-1 439:-1 440:-1 441:-1 442:-1 443:0.647059 444:0.992157 445:0.709804 446:-1 453:-1 454:0.819608 455:0.992157 456:0.85098 457:-1 458:-1 459:-1 460:-1 461:-1 462:-1 463:-1 464:-1 465:-1 466:-1 467:-1 468:-0.764706 469:0.0196078 470:0.615686 471:0.968627 472:0.992157 473:-0.286275 474:-1 481:-1 482:0.192157 483:0.992157 484:0.85098 485:-1 486:-1 487:-1 488:-1 489:-1 490:-1 491:-1 492:-0.47451 493:-0.0196078 494:0.662745 495:0.662745 496:0.788235 497:0.992157 498:0.709804 499:0.309804 500:-0.137255 501:-0.992157 502:-1 508:-1 509:-1 510:-0.827451 511:0.654902 512:0.976471 513:0.137255 514:-0.262745 515:-0.262745 516:-0.262745 517:0.403922 518:0.709804 519:0.709804 520:0.929412 521:0.992157 522:0.992157 523:0.741176 524:0.262745 525:-0.6 526:-0.827451 527:-1 528:-1 529:-1 530:-1 536:-1 537:-1 538:-1 539:-0.819608 540:0.270588 541:0.992157 542:0.992157 543:0.992157 544:0.992157 545:0.992157 546:0.819608 547:0.788235 548:0.403922 549:0.207843 550:-0.0901961 551:-0.843137 552:-1 553:-1 554:-1 555:-1 556:-1 557:-1 564:-1 565:-1 566:-1 567:-1 568:-0.984314 569:-0.811765 570:-0.686275 571:-0.45098 572:-0.811765 573:-0.811765 574:-0.85098 575:-0.858824 576:-0.952941 577:-1 578:-1 579:-1 580:-1 581:-1 582:-1 583:-1 584:-1 585:-1 592:-1 593:-1 594:-1 595:-1 596:-1 597:-1 598:-1 599:-1 600:-1 601:-1 602:-1 603:-1 604:-1 605:-1 606:-1 607:-1 608:-1 609:-1 610:-1 611:-1 612:-1 620:-1 621:-1 622:-1 623:-1 624:-1 625:-1 626:-1 627:-1 628:-1 629:-1 630:-1 631:-1 632:-1 633:-1 634:-1 635:-1 636:-1 637:-1 638:-1 639:-1 640:-1 649:-1 650:-1 651:-1 652:-1 653:-1 654:-1 655:-1 656:-1 657:-1 658:-1 659:-1 660:-1 661:-1 662:-1 663:-1 664:-1 665:-1 666:-1 667:-1 678:-1 679:-1 680:-1 681:-1 682:-1 683:-1 684:-1 685:-1 686:-1 687:-1 688:-1 689:-1 690:-1 691:-1 692:-1 693:-1 694:-1 711:-1 712:-1 713:-1 714:-1 715:-1 716:-1 
0.06919610147980497 68:-1 69:-1 94:-1 95:-1 96:-1 97:-1 98:-1 99:-1 100:-1 101:-1 102:-1 103:-1 104:-1 105:-1 106:-1 107:-1 108:-1 120:-1 121:-1 122:-1 123:-1 124:-1 125:-0.333333 126:-0.0980392 127:-1 128:-1 129:-1 130:-1 131:-1 132:-1 133:-1 134:-1 135:-1 136:-1 147:-1 148:-1 149:-1 150:-1 151:-1 152:-0.498039 153:0.764706 154:0.905882 155:-0.0745098 156:-0.403922 157:-0.976471 158:-1 159:-1 160:-1 161:-1 162:-1 163:-1 164:-1 165:-1 174:-1 175:-1 176:-1 177:-1 178:-1 179:-1 180:0.403922 181:0.984314 182:0.992157 183:0.984314 184:0.984314 185:0.32549 186:-0.85098 187:-1 188:-1 189:-1 190:-1 191:-1 192:-1 193:-1 202:-1 203:-1 204:-1 205:-1 206:-1 207:-0.145098 208:0.960784 209:0.796078 210:0.372549 211:0.654902 212:0.796078 213:0.984314 214:0.796078 215:-0.47451 216:-1 217:-1 218:-1 219:-1 220:-1 221:-1 222:-1 229:-1 230:-1 231:-1 232:-1 233:-1 234:-0.843137 235:0.780392 236:0.364706 237:-0.764706 238:-1 239:-1 240:-1 241:-0.0509804 242:0.945098 243:0.709804 244:-0.929412 245:-1 246:-1 247:-1 248:-1 249:-1 250:-1 257:-1 258:-1 259:-1 260:-1 261:-1 262:-0.231373 263:0.34902 264:-1 265:-1 266:-1 267:-1 268:-1 269:-1 270:-0.372549 271:0.984314 272:0.0980392 273:-1 274:-1 275:-1 276:-1 277:-1 278:-1 285:-1 286:-1 287:-1 288:-1 289:-1 290:-0.0901961 291:0.152941 292:-1 293:-1 294:-1 295:-1 296:-1 297:-1 298:-0.976471 299:0.6 300:0.427451 301:-1 302:-1 303:-1 304:-1 305:-1 306:-1 313:-1 314:-1 315:-1 316:-1 317:-1 318:0.372549 319:0.0666667 320:-1 321:-1 322:-1 323:-1 324:-1 325:-1 326:-1 327:-0.027451 328:0.952941 329:-0.670588 330:-1 331:-1 332:-1 333:-1 334:-1 341:-1 342:-1 343:-1 344:-1 345:-1 346:0.803922 347:-0.160784 348:-1 349:-1 350:-1 351:-1 352:-1 353:-1 354:-1 355:-1 356:0.45098 357:0.419608 358:-1 359:-1 360:-1 361:-1 362:-1 369:-1 370:-1 371:-1 372:-1 373:-0.898039 374:0.968627 375:-0.231373 376:-1 377:-1 378:-1 379:-1 380:-1 381:-1 382:-1 383:-1 384:-0.113725 385:0.701961 386:-1 387:-1 388:-1 389:-1 390:-1 397:-1 398:-1 399:-1 400:-1 401:-0.380392 402:0.835294 403:-1 404:-1 405:-1 406:-1 407:-1 408:-1 409:-1 410:-1 411:-1 412:-0.443137 413:0.890196 414:-1 415:-1 416:-1 417:-1 418:-1 425:-1 426:-1 427:-1 428:-1 429:-0.380392 430:0.647059 431:-1 432:-1 433:-1 434:-1 435:-1 436:-1 437:-1 438:-1 439:-1 440:-0.537255 441:0.796078 442:-1 443:-1 444:-1 445:-1 446:-1 453:-1 454:-1 455:-1 456:-1 457:-0.568627 458:0.937255 459:-0.717647 460:-1 461:-1 462:-1 463:-1 464:-1 465:-1 466:-1 467:-1 468:-0.537255 469:0.992157 470:-0.756863 471:-1 472:-1 473:-1 474:-1 481:-1 482:-1 483:-1 484:-1 485:-0.380392 486:0.364706 487:-1 488:-1 489:-1 490:-1 491:-1 492:-1 493:-1 494:-1 495:-1 496:-0.537255 497:0.984314 498:-0.380392 499:-1 500:-1 501:-1 502:-1 508:-1 509:-1 510:-1 511:-1 512:-1 513:-0.380392 514:0.364706 515:-1 516:-1 517:-1 518:-1 519:-1 520:-1 521:-1 522:-1 523:-1 524:-0.0588235 525:0.843137 526:-0.717647 527:-1 528:-1 529:-1 530:-1 536:-1 537:-1 538:-1 539:-1 540:-1 541:-0.568627 542:0.882353 543:-0.858824 544:-1 545:-1 546:-1 547:-1 548:-1 549:-1 550:-1 551:-0.333333 552:0.960784 553:0.184314 554:-1 555:-1 556:-1 557:-1 564:-1 565:-1 566:-1 567:-1 568:-1 569:-0.615686 570:1 571:-0.113725 572:-1 573:-1 574:-1 575:-1 576:-1 577:-1 578:-0.560784 579:0.662745 580:0.623529 581:-0.952941 582:-1 583:-1 584:-1 585:-1 592:-1 593:-1 594:-1 595:-1 596:-1 597:-1 598:0.419608 599:0.584314 600:-0.858824 601:-1 602:-1 603:-1 604:-0.592157 605:0.294118 606:0.968627 607:0.2 608:-0.505882 609:-1 610:-1 611:-1 612:-1 620:-1 621:-1 622:-1 623:-1 624:-1 625:-1 626:-0.372549 627:0.984314 628:0.678431 629:0.0666667 630:0.498039 631:0.686275 632:0.937255 633:0.317647 634:-0.717647 635:-1 636:-1 637:-1 638:-1 639:-1 640:-1 649:-1 650:-1 651:-1 652:-1 653:-1 654:-0.984314 655:-0.0901961 656:0.701961 657:0.984314 658:0.560784 659:-0.0980392 660:0.137255 661:-0.898039 662:-1 663:-1 664:-1 665:-1 666:-1 667:-1 678:-1 679:-1 680:-1 681:-1 682:-1 683:-1 684:-1 685:-1 686:-1 687:-1 688:-1 689:-1 690:-1 691:-1 692:-1 693:-1 694:-1 711:-1 712:-1 713:-1 714:-1 715:-1 716:-1 
0.1379790236037032 68:-1 69:-1 94:-1 95:-1 96:-1 97:-1 98:-1 99:-1 100:-1 101:-1 102:-1 103:-1 104:-1 105:-1 106:-1 107:-1 108:-1 120:-1 121:-1 122:-1 123:-1 124:-1 125:-1 126:-1 127:-1 128:-1 129:-1 130:-1 131:-1 132:-1 133:-1 134:-1 135:-1 136:-1 147:-1 148:-1 149:-1 150:-1 151:-1 152:-1 153:-1 154:-1 155:-1 156:-1 157:-1 158:-1 159:-1 160:-1 161:-1 162:-1 163:-1 164:-1 165:-1 174:-1 175:-1 176:-1 177:-1 178:-1 179:-1 180:-1 181:-1 182:-1 183:-1 184:-1 185:-1 186:-1 187:-1 188:-1 189:-1 190:-1 191:-1 192:-1 193:-1 202:-1 203:-1 204:-1 205:-1 206:-1 207:-1 208:-1 209:-1 210:-1 211:-1 212:-1 213:-1 214:-1 215:-1 216:-1 217:-1 218:-1 219:-1 220:-1 221:-1 222:-1 229:-1 230:-1 231:-1 232:-1 233:-1 234:-1 235:-1 236:-1 237:-1 238:-1 239:-1 240:-1 241:-1 242:-0.74902 243:-0.396078 244:0.482353 245:0.482353 246:0.247059 247:-0.435294 248:-0.92126 249:-1 250:-1 257:-1 258:-1 259:-1 260:-1 261:-1 262:-1 263:-0.701961 264:-0.278431 265:0.623529 266:0.623529 267:0.623529 268:0.623529 269:0.623529 270:0.788235 271:0.984314 272:0.984314 273:0.984314 274:0.984314 275:0.984314 276:0.677165 277:-0.559055 278:-1 285:-1 286:-1 287:-1 288:-1 289:-1 290:-0.701961 291:0.756863 292:0.984314 293:0.984314 294:0.984314 295:0.984314 296:0.984314 297:0.984314 298:0.615686 299:0.152941 300:0.152941 301:0.152941 302:0.364706 303:0.984314 304:0.984314 305:0.0629921 306:-1 313:-1 314:-1 315:-1 316:-0.984314 317:-0.686275 318:0.764706 319:0.984314 320:0.984314 321:0.937255 322:0.356863 323:0.0117647 324:0.741176 325:0.629921 326:-0.866667 327:-1 328:-1 329:-1 330:-0.976471 331:0.137255 332:0.984314 333:0.0787402 334:-1 341:-1 342:-1 343:-1 344:-0.490196 345:0.984314 346:0.984314 347:0.984314 348:0.764706 349:-1 350:-1 351:-1 352:-0.733333 353:-0.448819 354:-1 355:-1 356:-1 357:-1 358:-1 359:-0.341176 360:0.984314 361:0.472441 362:-1 369:-1 370:-1 371:-0.231373 372:0.74902 373:0.984314 374:0.984314 375:0.309804 376:-0.968627 377:-1 378:-1 379:-1 380:-1 381:-1 382:-1 383:-1 384:-1 385:-1 386:-0.913725 387:0.301961 388:0.984314 389:0.0629921 390:-1 397:-1 398:-0.960784 399:0.388235 400:0.984314 401:0.984314 402:0.278431 403:-0.929412 404:-1 405:-1 406:-1 407:-1 408:-1 409:-1 410:-1 411:-1 412:-1 413:-0.905882 414:0.286275 415:0.984314 416:0.984314 417:0.0588235 418:-1 425:-1 426:-0.137255 427:0.984314 428:0.984314 429:0.270588 430:-0.913725 431:-1 432:-1 433:-1 434:-1 435:-1 436:-1 437:-1 438:-1 439:-1 440:-0.639216 441:0.294118 442:0.984314 443:0.984314 444:0.74902 445:-0.694118 446:-1 453:-1 454:0.85098 455:0.984314 456:0.827451 457:-0.678431 458:-1 459:-1 460:-1 461:-1 462:-1 463:-1 464:-1 465:-0.717647 466:-0.254902 467:0.215686 468:0.858824 469:0.984314 470:0.984314 471:0.396078 472:-0.678431 473:-1 474:-1 481:-1 482:1 483:0.984314 484:0.568627 485:-1 486:-1 487:-1 488:-1 489:-1 490:-1 491:-0.788235 492:0.160784 493:0.87451 494:0.984314 495:0.984314 496:0.984314 497:0.819608 498:-0.129412 499:-0.960784 500:-1 501:-1 502:-1 508:-1 509:-1 510:0.0431373 511:0.984314 512:0.976471 513:0.686275 514:0.0196078 515:-0.364706 516:-0.0117647 517:0.0196078 518:0.607843 519:0.960784 520:0.984314 521:0.984314 522:0.905882 523:0.411765 524:-0.137255 525:-0.968627 526:-1 527:-1 528:-1 529:-1 530:-1 536:-1 537:-1 538:-0.87451 539:0.898039 540:0.984314 541:0.984314 542:0.984314 543:0.984314 544:0.984314 545:0.984314 546:0.984314 547:0.984314 548:0.913725 549:-0.0196078 550:-0.921569 551:-1 552:-1 553:-1 554:-1 555:-1 556:-1 557:-1 564:-1 565:-1 566:-1 567:-0.45098 568:0.866667 569:0.984314 570:0.984314 571:0.984314 572:0.976471 573:0.615686 574:0.458824 575:-0.309804 576:-0.513725 577:-1 578:-1 579:-1 580:-1 581:-1 582:-1 583:-1 584:-1 585:-1 592:-1 593:-1 594:-1 595:-1 596:-0.623529 597:-0.45098 598:-0.45098 599:-0.45098 600:-0.458824 601:-1 602:-1 603:-1 604:-1 605:-1 606:-1 607:-1 608:-1 609:-1 610:-1 611:-1 612:-1 620:-1 621:-1 622:-1 623:-1 624:-1 625:-1 626:-1 627:-1 628:-1 629:-1 630:-1 631:-1 632:-1 633:-1 634:-1 635:-1 636:-1 637:-1 638:-1 639:-1 640:-1 649:-1 650:-1 651:-1 652:-1 653:-1 654:-1 655:-1 656:-1 657:-1 658:-1 659:-1 660:-1 661:-1 662:-1 663:-1 664:-1 665:-1 666:-1 667:-1 678:-1 679:-1 680:-1 681:-1 682:-1 683:-1 684:-1 685:-1 686:-1 687:-1 688:-1 689:-1 690:-1 691:-1 692:-1 693:-1 694:-1 711:-1 712:-1 713:-1 714:-1 715:-1 716:-1 
0.9354166578487625 68:-1 69:-1 94:-1 95:-1 96:-1 97:-1 98:-1 99:-1 100:-1 101:-1 102:-1 103:-1 104:-1 105:-1 106:-1 107:-1 108:-1 120:-1 121:-1 122:-1 123:-1 124:-1 125:-1 126:-1 127:-1 128:-0.631373 129:0.709804 130:-0.207843 131:-1 132:-1 133:-1 134:-1 135:-1 136:-1 147:-1 148:-1 149:-1 150:-1 151:-1 152:-1 153:-1 154:-1 155:-0.301961 156:0.929412 157:0.992157 158:0.796078 159:-0.709804 160:-1 161:-1 162:-1 163:-1 164:-1 165:-1 174:-1 175:-1 176:-1 177:-1 178:-1 179:-1 180:-1 181:-1 182:-0.309804 183:0.984314 184:0.992157 185:0.992157 186:0.717647 187:-0.764706 188:-1 189:-1 190:-1 191:-1 192:-1 193:-1 202:-1 203:-1 204:-1 205:-1 206:-1 207:-1 208:-1 209:-0.72549 210:0.937255 211:0.992157 212:0.992157 213:0.992157 214:0.47451 215:-0.945098 216:-1 217:-1 218:-1 219:-1 220:-1 221:-1 222:-1 229:-1 230:-1 231:-1 232:-1 233:-1 234:-1 235:-1 236:-1 237:0.0823529 238:0.992157 239:0.992157 240:0.521569 241:0.780392 242:0.992157 243:-0.105882 244:-1 245:-1 246:-1 247:-1 248:-1 249:-1 250:-1 257:-1 258:-1 259:-1 260:-1 261:-1 262:-1 263:-1 264:-0.654902 265:0.945098 266:0.992157 267:0.952941 268:-0.654902 269:0.254902 270:0.992157 271:0.443137 272:-1 273:-1 274:-1 275:-1 276:-1 277:-1 278:-1 285:-1 286:-1 287:-1 288:-1 289:-1 290:-1 291:-1 292:-0.32549 293:0.992157 294:0.992157 295:0.341176 296:-1 297:0.00392157 298:0.992157 299:0.843137 300:-0.827451 301:-1 302:-1 303:-1 304:-1 305:-1 306:-1 313:-1 314:-1 315:-1 316:-1 317:-1 318:-1 319:-1 320:0.411765 321:0.992157 322:0.992157 323:-0.607843 324:-1 325:-0.598425 326:0.945098 327:0.992157 328:-0.458824 329:-1 330:-1 331:-1 332:-1 333:-1 334:-1 341:-1 342:-1 343:-1 344:-1 345:-1 346:-1 347:-1 348:0.45098 349:0.992157 350:0.717647 351:-0.976471 352:-1 353:-1 354:0.686275 355:0.992157 356:-0.160784 357:-1 358:-1 359:-1 360:-1 361:-1 362:-1 369:-1 370:-1 371:-1 372:-1 373:-1 374:-1 375:-0.301961 376:0.984314 377:0.944882 378:-0.607843 379:-1 380:-1 381:-1 382:0.686275 383:0.992157 384:0.0117647 385:-1 386:-1 387:-1 388:-1 389:-1 390:-1 397:-1 398:-1 399:-1 400:-1 401:-1 402:-1 403:0.0196078 404:0.992157 405:0.678431 406:-1 407:-1 408:-1 409:-1 410:0.686275 411:0.992157 412:0.0117647 413:-1 414:-1 415:-1 416:-1 417:-1 418:-1 425:-1 426:-1 427:-1 428:-1 429:-1 430:-1 431:0.0196078 432:0.992157 433:0.498039 434:-1 435:-1 436:-1 437:-1 438:0.686275 439:0.992157 440:0.0117647 441:-1 442:-1 443:-1 444:-1 445:-1 446:-1 453:-1 454:-1 455:-1 456:-1 457:-1 458:-1 459:0.686275 460:1 461:-0.0980392 462:-1 463:-1 464:-1 465:-0.733333 466:0.827451 467:0.992157 468:-0.027451 469:-1 470:-1 471:-1 472:-1 473:-1 474:-1 481:-1 482:-1 483:-1 484:-1 485:-1 486:-1 487:0.803922 488:0.992157 489:-0.0980392 490:-1 491:-1 492:-1 493:0.254902 494:0.992157 495:0.843137 496:-0.827451 497:-1 498:-1 499:-1 500:-1 501:-1 502:-1 508:-1 509:-1 510:-1 511:-1 512:-1 513:-1 514:-1 515:0.803922 516:0.992157 517:-0.411765 518:-1 519:-1 520:-0.498039 521:0.913725 522:0.992157 523:0.443137 524:-1 525:-1 526:-1 527:-1 528:-1 529:-1 530:-1 536:-1 537:-1 538:-1 539:-1 540:-1 541:-1 542:-1 543:0.247059 544:0.992157 545:-0.0980392 546:-1 547:-0.87451 548:0.733333 549:0.992157 550:0.992157 551:-0.105882 552:-1 553:-1 554:-1 555:-1 556:-1 557:-1 564:-1 565:-1 566:-1 567:-1 568:-1 569:-1 570:-1 571:0.0196078 572:0.992157 573:0.356863 574:-0.717647 575:0.537255 576:0.992157 577:0.992157 578:0.780392 579:-0.945098 580:-1 581:-1 582:-1 583:-1 584:-1 585:-1 592:-1 593:-1 594:-1 595:-1 596:-1 597:-1 598:-1 599:0.0196078 600:0.992157 601:0.992157 602:0.992157 603:0.992157 604:0.992157 605:0.992157 606:-0.184314 607:-1 608:-1 609:-1 610:-1 611:-1 612:-1 620:-1 621:-1 622:-1 623:-1 624:-1 625:-1 626:-1 627:-0.960784 628:0.333333 629:0.992157 630:0.992157 631:0.992157 632:0.85098 633:-0.341176 634:-0.984314 635:-1 636:-1 637:-1 638:-1 639:-1 640:-1 649:-1 650:-1 651:-1 652:-1 653:-1 654:-1 655:-1 656:-0.85098 657:0.286275 658:0.992157 659:0.529412 660:-0.592157 661:-1 662:-1 663:-1 664:-1 665:-1 666:-1 667:-1 678:-1 679:-1 680:-1 681:-1 682:-1 683:-1 684:-1 685:-1 686:-1 687:-1 688:-1 689:-1 690:-1 691:-1 692:-1 693:-1 694:-1 711:-1 712:-1 713:-1 714:-1 715:-1 716:-1 
0.3886316303637973 68:-1 69:-1 94:-1 95:-1 96:-1 97:-1 98:-1 99:-1 100:-1 101:-1 102:-1 103:-1 104:-1 105:-1 106:-1 107:-1 108:-1 120:-1 121:-1 122:-1 123:-1 124:-1 125:-1 126:-1 127:-1 128:-1 129:-1 130:-1 131:-1 132:-1 133:-1 134:-1 135:-1 136:-1 147:-1 148:-1 149:-1 150:-1 151:-1 152:-1 153:-1 154:-1 155:-1 156:-1 157:-1 158:-1 159:-1 160:-1 161:-1 162:-1 163:-1 164:-1 165:-1 174:-1 175:-1 176:-1 177:-1 178:-1 179:-1 180:-1 181:-1 182:-1 183:-1 184:-1 185:-1 186:-1 187:-1 188:-1 189:-1 190:-1 191:-1 192:-1 193:-1 202:-1 203:-1 204:-1 205:-0.338583 206:0.545098 207:-0.0745098 208:0.341176 209:0.545098 210:-0.623529 211:-0.898039 212:-1 213:-1 214:-1 215:-1 216:-1 217:-1 218:-1 219:-1 220:-1 221:-1 222:-1 229:-1 230:-1 231:-1 232:-1 233:-0.160784 234:0.984314 235:0.984314 236:0.984314 237:0.984314 238:0.984314 239:-0.231373 240:-1 241:-1 242:-1 243:-1 244:-1 245:-1 246:-1 247:-1 248:-1 249:-1 250:-1 257:-1 258:-1 259:-1 260:-1 261:-0.866667 262:0.615686 263:0.984314 264:0.984314 265:0.984314 266:0.984314 267:0.788235 268:-0.952941 269:-1 270:-1 271:-1 272:-1 273:-1 274:-1 275:-1 276:-1 277:-1 278:-1 285:-1 286:-1 287:-1 288:-0.921569 289:0.0901961 290:0.788235 291:0.984314 292:0.984314 293:0.984314 294:0.984314 295:0.984314 296:-0.231373 297:-1 298:-1 299:-1 300:-1 301:-1 302:-1 303:-1 304:-1 305:-1 306:-1 313:-1 314:-1 315:-0.811765 316:0.443137 317:0.984314 318:0.984314 319:0.984314 320:0.984314 321:0.984314 322:0.984314 323:0.984314 324:0.921569 325:0.76378 326:-0.482353 327:-0.529412 328:-1 329:-1 330:-1 331:-1 332:-1 333:-1 334:-1 341:-1 342:-1 343:-0.286275 344:0.984314 345:0.984314 346:0.827451 347:-0.231373 348:-0.231373 349:-0.231373 350:-0.231373 351:-0.231373 352:0.952941 353:0.992126 354:0.984314 355:0.905882 356:0.223529 357:-0.764706 358:-1 359:-1 360:-1 361:-1 362:-1 369:-1 370:-1 371:0.121569 372:0.984314 373:0.709804 374:-0.662745 375:-1 376:-1 377:-1 378:-1 379:-1 380:-0.945098 381:-0.0592885 382:0.592157 383:0.984314 384:0.984314 385:0.945098 386:0.929412 387:0.639216 388:-0.34902 389:-0.96063 390:-1 397:-1 398:-1 399:1 400:0.984314 401:0.145098 402:-1 403:-1 404:-1 405:-1 406:-1 407:-1 408:-1 409:-1 410:-0.74902 411:-0.364706 412:-0.364706 413:0.686275 414:0.984314 415:0.984314 416:0.984314 417:0.388235 418:-0.478261 425:-1 426:-1 427:0.992157 428:0.984314 429:0.145098 430:-1 431:-1 432:-1 433:-1 434:-1 435:-1 436:-1 437:-1 438:-1 439:-1 440:-1 441:-0.796078 442:0.207843 443:0.890196 444:0.984314 445:0.984314 446:1 453:-1 454:-1 455:0.0352941 456:0.984314 457:0.772549 458:-0.545098 459:-1 460:-1 461:-1 462:-1 463:-1 464:-1 465:-1 466:-1 467:-1 468:-1 469:-1 470:-0.898039 471:0.764706 472:0.984314 473:0.984314 474:1 481:-1 482:-1 483:-0.607843 484:0.72549 485:0.984314 486:0.843137 487:-0.0901961 488:-0.270588 489:-1 490:-1 491:-1 492:-1 493:-1 494:-1 495:-0.905882 496:-0.0901961 497:-0.0901961 498:0.458824 499:0.984314 500:0.984314 501:0.984314 502:1 508:-1 509:-1 510:-1 511:-1 512:-0.647059 513:0.662745 514:0.913725 515:0.984314 516:0.913725 517:0.607843 518:0.607843 519:0.607843 520:0.607843 521:0.607843 522:0.607843 523:0.647059 524:0.984314 525:0.984314 526:0.984314 527:0.701961 528:0.662745 529:-0.140741 530:1 536:-1 537:-1 538:-1 539:-1 540:-1 541:-1 542:-0.254902 543:0.45098 544:0.984314 545:0.984314 546:0.984314 547:0.984314 548:0.984314 549:0.984314 550:0.984314 551:0.984314 552:0.984314 553:0.145098 554:-0.0431373 555:-0.87451 556:-1 557:-1 564:-1 565:-1 566:-1 567:-1 568:-1 569:-1 570:-1 571:-0.87451 572:-0.74902 573:-0.74902 574:-0.74902 575:-0.74902 576:-0.74902 577:0.0823529 578:-0.74902 579:-0.74902 580:-0.74902 581:-0.952941 582:-1 583:-1 584:-1 585:-1 592:-1 593:-1 594:-1 595:-1 596:-1 597:-1 598:-1 599:-1 600:-1 601:-1 602:-1 603:-1 604:-1 605:-1 606:-1 607:-1 608:-1 609:-1 610:-1 611:-1 612:-1 620:-1 621:-1 622:-1 623:-1 624:-1 625:-1 626:-1 627:-1 628:-1 629:-1 630:-1 631:-1 632:-1 633:-1 634:-1 635:-1 636:-1 637:-1 638:-1 639:-1 640:-1 649:-1 650:-1 651:-1 652:-1 653:-1 654:-1 655:-1 656:-1 657:-1 658:-1 659:-1 660:-1 661:-1 662:-1 663:-1 664:-1 665:-1 666:-1 667:-1 678:-1 679:-1 680:-1 681:-1 682:-1 683:-1 684:-1 685:-1 686:-1 687:-1 688:-1 689:-1 690:-1 691:-1 692:-1 693:-1 694:-1 711:-1 712:-1 713:-1 714:-1 715:-1 716:-1 
0.3232900004218834 68:-1 69:-1 94:-1 95:-1 96:-1 97:-1 98:-1 99:-1 100:-1 101:-1 102:-1 103:-1 104:-1 105:-1 106:-1 107:-1 108:-1 120:-1 121:-1 122:-1 123:-1 124:-1 125:-1 126:-1 127:-1 128:-1 129:-1 130:-1 131:-1 132:-1 133:-1 134:-1 135:-1 136:-1 147:-1 148:-1 149:-1 150:-1 151:-1 152:-1 153:-1 154:-1 155:-1 156:-1 157:-1 158:-1 159:-1 160:-1 161:-1 162:-1 163:-1 164:-1 165:-1 174:-1 175:-1 176:-1 177:-1 178:-1 179:-1 180:-1 181:-1 182:-1 183:-1 184:-1 185:-1 186:-1 187:-1 188:-1 189:-1 190:-1 191:-1 192:-1 193:-1 202:-1 203:-1 204:-1 205:-1 206:-1 207:-1 208:-1 209:-1 210:-1 211:-1 212:-1 213:-1 214:-1 215:-1 216:-1 217:-1 218:-1 219:-1 220:-1 221:-1 222:-1 229:-1 230:-1 231:-1 232:-1 233:-1 234:-1 235:-1 236:-1 237:-1 238:-1 239:-1 240:-1 241:-1 242:-1 243:-1 244:-1 245:-1 246:-1 247:-1 248:-1 249:-1 250:-1 257:-1 258:-1 259:-1 260:-1 261:-1 262:-0.843137 263:-0.584314 264:0.215686 265:0.215686 266:0.215686 267:0.215686 268:0.215686 269:-0.568627 270:-0.74902 271:-0.74902 272:-0.74902 273:-0.976471 274:-1 275:-1 276:-1 277:-1 278:-1 285:-1 286:-1 287:-0.976378 288:-0.701961 289:-0.105882 290:0.72549 291:0.984314 292:0.984314 293:0.984314 294:0.984314 295:0.984314 296:0.984314 297:0.984314 298:0.984314 299:0.984314 300:0.984314 301:0.333333 302:-0.639216 303:-0.984314 304:-1 305:-1 306:-1 313:-1 314:-0.76378 315:0.364706 316:0.984314 317:0.984314 318:0.984314 319:0.756863 320:0.647059 321:0.647059 322:0.647059 323:0.647059 324:0.647059 325:0.173228 326:0.764706 327:0.984314 328:0.984314 329:0.984314 330:0.984314 331:-0.105882 332:-0.992157 333:-1 334:-1 341:-0.712871 342:0.708661 343:0.984314 344:0.984314 345:0.937255 346:-0.0196078 347:-0.788235 348:-1 349:-1 350:-1 351:-1 352:-1 353:-1 354:-0.780392 355:-0.372549 356:0.00392157 357:0.756863 358:0.984314 359:0.984314 360:-0.286275 361:-1 362:-1 369:0.239216 370:0.984314 371:0.772549 372:0.984314 373:0.913725 374:-0.270588 375:-1 376:-1 377:-1 378:-1 379:-1 380:-1 381:-1 382:-1 383:-1 384:-1 385:-0.756863 386:0.670588 387:0.984314 388:0.701961 389:-1 390:-1 397:0.992157 398:0.984314 399:0.145098 400:0.0980392 401:0.498039 402:-0.192157 403:-1 404:-1 405:-1 406:-1 407:-1 408:-1 409:-1 410:-1 411:-1 412:-1 413:-1 414:-0.121569 415:0.984314 416:0.984314 417:-1 418:-1 425:0.254902 426:0.984314 427:0.952941 428:-0.372549 429:-1 430:-1 431:-1 432:-1 433:-1 434:-1 435:-1 436:-1 437:-1 438:-1 439:-1 440:-1 441:-0.772549 442:0.654902 443:0.984314 444:0.72549 445:-1 446:-1 453:-0.74902 454:0.717647 455:0.984314 456:0.639216 457:-0.482353 458:-1 459:-1 460:-1 461:-1 462:-1 463:-1 464:-1 465:-1 466:-1 467:-0.780392 468:-0.027451 469:0.733333 470:0.984314 471:0.984314 472:-0.270588 473:-1 474:-1 481:-1 482:-0.709804 483:0.984314 484:0.984314 485:0.937255 486:0.607843 487:0.435294 488:-0.364706 489:-0.364706 490:-0.364706 491:-0.364706 492:-0.364706 493:-0.364706 494:0.443137 495:0.74902 496:0.984314 497:0.984314 498:0.984314 499:-0.0666667 500:-0.992157 501:-1 502:-1 508:-1 509:-1 510:-0.976471 511:-0.662745 512:-0.027451 513:0.984314 514:0.984314 515:0.984314 516:0.984314 517:0.984314 518:0.984314 519:0.984314 520:0.984314 521:0.984314 522:0.984314 523:0.984314 524:0.984314 525:0.701961 526:-0.121569 527:-0.984314 528:-1 529:-1 530:-1 536:-1 537:-1 538:-1 539:-1 540:-0.968627 541:-0.592157 542:0.254902 543:0.254902 544:0.396078 545:0.984314 546:0.984314 547:0.984314 548:0.984314 549:0.984314 550:0.984314 551:0.356863 552:-0.6 553:-0.827451 554:-1 555:-1 556:-1 557:-1 564:-1 565:-1 566:-1 567:-1 568:-1 569:-1 570:-1 571:-1 572:-0.952941 573:-0.764706 574:-0.764706 575:-0.498039 576:-0.552941 577:-0.764706 578:-0.764706 579:-0.960784 580:-1 581:-1 582:-1 583:-1 584:-1 585:-1 592:-1 593:-1 594:-1 595:-1 596:-1 597:-1 598:-1 599:-1 600:-1 601:-1 602:-1 603:-1 604:-1 605:-1 606:-1 607:-1 608:-1 609:-1 610:-1 611:-1 612:-1 620:-1 621:-1 622:-1 623:-1 624:-1 625:-1 626:-1 627:-1 628:-1 629:-1 630:-1 631:-1 632:-1 633:-1 634:-1 635:-1 636:-1 637:-1 638:-1 639:-1 640:-1 649:-1 650:-1 651:-1 652:-1 653:-1 654:-1 655:-1 656:-1 657:-1 658:-1 659:-1 660:-1 661:-1 662:-1 663:-1 664:-1 665:-1 666:-1 667:-1 678:-1 679:-1 680:-1 681:-1 682:-1 683:-1 684:-1 685:-1 686:-1 687:-1 688:-1 689:-1 690:-1 691:-1 692:-1 693:-1 694:-1 711:-1 712:-1 713:-1 714:-1 715:-1 716:-1 
0.6666578546336466 68:-1 69:-1 94:-1 95:-1 96:-1 97:-1 98:-1 99:-1 100:-1 101:-1 102:-1 103:-1 104:-1 105:-1 106:-1 107:-1 108:-1 120:-1 121:-1 122:-1 123:-1 124:-1 125:-1 126:-1 127:-1 128:-1 129:-1 130:-1 131:-1 132:-1 133:-1 134:-1 135:-1 136:-1 147:-1 148:-1 149:-1 150:-1 151:-1 152:-1 153:-1 154:-0.85098 155:0.505882 156:1 157:0.0117647 158:-0.709804 159:-0.607843 160:-0.419608 161:-1 162:-1 163:-1 164:-1 165:-1 174:-1 175:-1 176:-1 177:-1 178:-1 179:-1 180:-1 181:-1 182:-0.364706 183:0.976471 184:0.984314 185:0.858824 186:-0.372549 187:0.796078 188:0.87451 189:-0.247059 190:-1 191:-1 192:-1 193:-1 202:-1 203:-1 204:-1 205:-1 206:-1 207:-1 208:-1 209:-0.952941 210:0.545098 211:0.976471 212:0.984314 213:0.435294 214:-0.882353 215:0.976471 216:0.976471 217:0.741176 218:-1 219:-1 220:-1 221:-1 222:-1 229:-1 230:-1 231:-1 232:-1 233:-1 234:-1 235:-1 236:-1 237:-0.294118 238:0.976471 239:0.976471 240:0.984314 241:-0.654902 242:-0.882353 243:0.976471 244:0.976471 245:0.741176 246:-1 247:-1 248:-1 249:-1 250:-1 257:-1 258:-1 259:-1 260:-1 261:-1 262:-1 263:-1 264:-1 265:0.0431373 266:0.976471 267:0.976471 268:0.984314 269:-0.654902 270:-0.882353 271:0.976471 272:0.976471 273:0.741176 274:-1 275:-1 276:-1 277:-1 278:-1 285:-1 286:-1 287:-1 288:-1 289:-1 290:-1 291:-0.968627 292:-0.137255 293:0.945098 294:0.976471 295:0.976471 296:0.262745 297:-0.898039 298:-0.184314 299:0.976471 300:0.976471 301:0.741176 302:-1 303:-1 304:-1 305:-1 306:-1 313:-1 314:-1 315:-1 316:-1 317:-1 318:-1 319:-0.764706 320:0.976471 321:0.976471 322:0.976471 323:0.976471 324:-1 325:-1 326:-0.882353 327:0.976471 328:0.976471 329:0.741176 330:-1 331:-1 332:-1 333:-1 334:-1 341:-1 342:-1 343:-1 344:-1 345:-1 346:-1 347:-0.764706 348:0.976471 349:0.976471 350:0.976471 351:-0.129412 352:-1 353:-1 354:-0.466667 355:0.976471 356:0.976471 357:-0.356863 358:-1 359:-1 360:-1 361:-1 362:-1 369:-1 370:-1 371:-1 372:-1 373:-1 374:-0.890196 375:0.231373 376:0.976471 377:0.984252 378:0.701961 379:-0.811765 380:-1 381:-0.636364 382:0.811765 383:0.976471 384:0.521569 385:-0.866667 386:-1 387:-1 388:-1 389:-1 390:-1 397:-1 398:-1 399:-1 400:-1 401:-1 402:-0.411765 403:0.976471 404:0.976471 405:0.560784 406:-0.333333 407:-1 408:-1 409:0.152941 410:0.976471 411:0.976471 412:0.388235 413:-1 414:-1 415:-1 416:-1 417:-1 418:-1 425:-1 426:-1 427:-1 428:-1 429:-1 430:-0.403922 431:0.984314 432:0.984314 433:0.278431 434:-1 435:-1 436:-1 437:0.639216 438:0.984314 439:0.984314 440:-0.0823529 441:-1 442:-1 443:-1 444:-1 445:-1 446:-1 453:-1 454:-1 455:-1 456:-1 457:-1 458:-0.137255 459:0.976471 460:0.984252 461:-0.686275 462:-1 463:-1 464:-0.803922 465:0.709804 466:0.976471 467:0.74902 468:-0.827451 469:-1 470:-1 471:-1 472:-1 473:-1 474:-1 481:-1 482:-1 483:-1 484:-1 485:-1 486:0.74902 487:0.976471 488:0.913725 489:-0.898039 490:-1 491:-1 492:0.576471 493:0.976471 494:0.898039 495:-0.631373 496:-1 497:-1 498:-1 499:-1 500:-1 501:-1 502:-1 508:-1 509:-1 510:-1 511:-1 512:-1 513:-1 514:0.74902 515:0.976471 516:-0.0745098 517:-1 518:-1 519:-0.443137 520:0.984314 521:0.976471 522:0.858824 523:-1 524:-1 525:-1 526:-1 527:-1 528:-1 529:-1 530:-1 536:-1 537:-1 538:-1 539:-1 540:-1 541:-0.717647 542:0.819608 543:0.905882 544:-0.34902 545:-1 546:-1 547:0.168627 548:0.984314 549:0.976471 550:-0.176471 551:-1 552:-1 553:-1 554:-1 555:-1 556:-1 557:-1 564:-1 565:-1 566:-1 567:-1 568:-1 569:-0.0588235 570:0.976471 571:0.741176 572:-1 573:-0.913725 574:0.129412 575:0.741176 576:0.984314 577:0.505882 578:-0.796078 579:-1 580:-1 581:-1 582:-1 583:-1 584:-1 585:-1 592:-1 593:-1 594:-1 595:-1 596:-1 597:-0.560784 598:0.85098 599:0.866667 600:-0.505882 601:-0.294118 602:0.976471 603:0.976471 604:0.984314 605:-0.654902 606:-1 607:-1 608:-1 609:-1 610:-1 611:-1 612:-1 620:-1 621:-1 622:-1 623:-1 624:-1 625:-1 626:0.74902 627:0.976471 628:0.913725 629:0.905882 630:0.976471 631:0.976471 632:-0.2 633:-0.976471 634:-1 635:-1 636:-1 637:-1 638:-1 639:-1 640:-1 649:-1 650:-1 651:-1 652:-1 653:-1 654:0.435294 655:0.87451 656:0.976471 657:0.976471 658:0.701961 659:-0.0588235 660:-1 661:-1 662:-1 663:-1 664:-1 665:-1 666:-1 667:-1 678:-1 679:-1 680:-1 681:-1 682:-1 683:-0.286275 684:0.354331 685:-0.192157 686:-0.811765 687:-1 688:-1 689:-1 690:-1 691:-1 692:-1 693:-1 694:-1 711:-1 712:-1 713:-1 714:-1 715:-1 716:-1 
0.3596538461394884 68:-1 69:-1 94:-1 95:-1 96:-1 97:-1 98:-1 99:-1 100:-1 101:-1 102:-1 103:-1 104:-1 105:-1 106:-1 107:-1 108:-1 120:-1 121:-1 122:-1 123:-1 124:-1 125:-1 126:-1 127:-1 128:-1 129:-1 130:-1 131:-1 132:-1 133:-1 134:-1 135:-1 136:-1 147:-1 148:-1 149:-1 150:-1 151:-1 152:-1 153:-1 154:-1 155:-1 156:-1 157:-1 158:-0.945098 159:-0.764706 160:0.223529 161:0.992157 162:1 163:0.685039 164:-0.790795 165:-1 174:-1 175:-1 176:-1 177:-1 178:-1 179:-1 180:-1 181:-1 182:-1 183:-1 184:-1 185:-0.85098 186:0.623529 187:0.984314 188:0.984314 189:0.85098 190:0.85098 191:0.992126 192:0.675889 193:-0.708333 202:-1 203:-1 204:-1 205:-1 206:-1 207:-1 208:-1 209:-1 210:-1 211:-1 212:-0.72549 213:0.639216 214:0.984314 215:0.670588 216:-0.247059 217:-0.780392 218:-0.427451 219:0.992126 220:0.525692 221:-0.918182 222:-1 229:-1 230:-1 231:-1 232:-1 233:-1 234:-1 235:-1 236:-1 237:-1 238:-0.85098 239:-0.207843 240:0.960784 241:0.976471 242:0.0588235 243:-0.74902 244:-1 245:-1 246:-0.427451 247:0.984314 248:0.0472441 249:-1 250:-1 257:-1 258:-1 259:-1 260:-1 261:-1 262:-1 263:-1 264:-1 265:-0.607843 266:0.505882 267:0.984314 268:0.984314 269:-0.00392157 270:-1 271:-1 272:-1 273:-1 274:-0.2 275:0.984314 276:-0.716535 277:-1 278:-1 285:-1 286:-1 287:-1 288:-1 289:-1 290:-1 291:-1 292:-0.286275 293:0.898039 294:0.984314 295:0.741176 296:-0.490196 297:-1 298:-1 299:-1 300:-1 301:-0.858824 302:0.654902 303:0.796078 304:-0.796078 305:-1 306:-1 313:-1 314:-1 315:-1 316:-1 317:-1 318:-1 319:-0.286275 320:0.898039 321:0.984314 322:0.733333 323:-0.239216 324:-1 325:-1 326:-1 327:-1 328:-1 329:-0.2 330:0.984314 331:0.00392157 332:-1 333:-1 334:-1 341:-1 342:-1 343:-1 344:-1 345:-1 346:-0.670588 347:0.905882 348:0.984314 349:0.984314 350:-0.584314 351:-1 352:-1 353:-1 354:-1 355:-1 356:-0.85098 357:0.639216 358:0.498039 359:-0.945098 360:-1 361:-1 362:-1 369:-1 370:-1 371:-1 372:-1 373:-1 374:-0.207843 375:0.984314 376:0.741176 377:-0.181102 378:-0.968627 379:-1 380:-1 381:-1 382:-1 383:-0.87451 384:0.0666667 385:0.984314 386:-0.443137 387:-1 388:-1 389:-1 390:-1 397:-1 398:-1 399:-1 400:-1 401:-0.72549 402:0.960784 403:0.984314 404:-0.0352941 405:-1 406:-1 407:-1 408:-1 409:-1 410:-1 411:-0.709804 412:0.984314 413:0.0745098 414:-0.976471 415:-1 416:-1 417:-1 418:-1 425:-1 426:-1 427:-1 428:-1 429:-0.207843 430:1 431:0.74902 432:-0.772549 433:-1 434:-1 435:-1 436:-1 437:-1 438:-0.85098 439:0.639216 440:0.74902 441:-0.72549 442:-1 443:-1 444:-1 445:-1 446:-1 453:-1 454:-1 455:-1 456:-0.976471 457:0.309804 458:0.984314 459:-0.027451 460:-1 461:-1 462:-1 463:-1 464:-1 465:-0.984314 466:0.223529 467:0.819608 468:-0.717647 469:-1 470:-1 471:-1 472:-1 473:-1 474:-1 481:-1 482:-1 483:-1 484:-0.670588 485:0.984314 486:0.984314 487:-0.435294 488:-1 489:-1 490:-1 491:-1 492:-1 493:-0.623529 494:0.866667 495:-0.34902 496:-1 497:-1 498:-1 499:-1 500:-1 501:-1 502:-1 508:-1 509:-1 510:-1 511:-1 512:0.137255 513:0.984314 514:0.984314 515:-0.435294 516:-1 517:-1 518:-1 519:-1 520:-0.811765 521:0.976471 522:0.00392157 523:-1 524:-1 525:-1 526:-1 527:-1 528:-1 529:-1 530:-1 536:-1 537:-1 538:-1 539:-1 540:0.137255 541:0.984314 542:0.709804 543:-0.835294 544:-1 545:-1 546:-1 547:-0.788235 548:0.654902 549:0.670588 550:-1 551:-1 552:-1 553:-1 554:-1 555:-1 556:-1 557:-1 564:-1 565:-1 566:-1 567:-1 568:0.137255 569:0.984314 570:0.607843 571:-1 572:-1 573:-1 574:-0.780392 575:0.631373 576:0.709804 577:-0.772549 578:-1 579:-1 580:-1 581:-1 582:-1 583:-1 584:-1 585:-1 592:-1 593:-1 594:-1 595:-1 596:0.137255 597:0.984314 598:0.607843 599:-1 600:-1 601:-0.772549 602:0.623529 603:0.984314 604:-0.278431 605:-1 606:-1 607:-1 608:-1 609:-1 610:-1 611:-1 612:-1 620:-1 621:-1 622:-1 623:-1 624:0.137255 625:0.984314 626:0.937255 627:0.027451 628:0.0352941 629:0.803922 630:0.984314 631:0.247059 632:-0.984314 633:-1 634:-1 635:-1 636:-1 637:-1 638:-1 639:-1 640:-1 649:-1 650:-1 651:-1 652:-0.802372 653:0.662745 654:0.984314 655:0.984314 656:0.984314 657:0.984314 658:-0.105882 659:-0.890196 660:-1 661:-1 662:-1 663:-1 664:-1 665:-1 666:-1 667:-1 678:-1 679:-1 680:-1 681:-0.782609 682:0.0352941 683:0.490196 684:0.0393701 685:-0.733333 686:-0.984314 687:-1 688:-1 689:-1 690:-1 691:-1 692:-1 693:-1 694:-1 711:-1 712:-1 713:-1 714:-1 715:-1 716:-1 
0.7647524693239918 68:-1 69:-1 94:-1 95:-1 96:-1 97:-1 98:-1 99:-1 100:-1 101:-1 102:-1 103:-1 104:-1 105:-1 106:-1 107:-1 108:-1 120:-1 121:-1 122:-1 123:-1 124:-1 125:-1 126:-1 127:-1 128:-0.741176 129:-0.309804 130:-0.835294 131:-1 132:-1 133:-1 134:-1 135:-1 136:-1 147:-1 148:-1 149:-1 150:-1 151:-1 152:-0.890196 153:-0.968627 154:-1 155:-1 156:0.466667 157:0.992157 158:0.631373 159:-0.443137 160:-1 161:-1 162:-1 163:-1 164:-1 165:-1 174:-1 175:-1 176:-1 177:-1 178:-0.858824 179:0.215686 180:0.764706 181:-0.615686 182:-1 183:-1 184:0.443137 185:0.984314 186:0.796078 187:0.905882 188:-0.105882 189:-0.858824 190:-1 191:-1 192:-1 193:-1 202:-1 203:-1 204:-1 205:-0.795276 206:0.552941 207:0.929412 208:0.372549 209:-0.921569 210:-1 211:-1 212:-0.772549 213:-0.145098 214:-0.866667 215:-0.207843 216:0.913725 217:0.552941 218:-0.960784 219:-1 220:-1 221:-1 222:-1 229:-1 230:-1 231:-1 232:0.00392157 233:0.882353 234:0.662745 235:-0.427451 236:-1 237:-1 238:-1 239:-1 240:-1 241:-1 242:-1 243:-1 244:-0.552941 245:0.858824 246:0.168627 247:-1 248:-1 249:-1 250:-1 257:-1 258:-1 259:-0.498039 260:0.897638 261:0.396078 262:-0.835294 263:-1 264:-1 265:-1 266:-1 267:-1 268:-1 269:-1 270:-1 271:-1 272:-1 273:-0.215686 274:0.921569 275:-0.427451 276:-1 277:-1 278:-1 285:-1 286:-0.685039 287:0.913386 288:0.615686 289:-0.843137 290:-1 291:-1 292:-1 293:-1 294:-1 295:-1 296:-1 297:-1 298:-1 299:-1 300:-1 301:-0.882353 302:0.552941 303:0.623529 304:-1 305:-1 306:-1 313:-0.581395 314:0.826772 315:0.992157 316:-0.639216 317:-1 318:-1 319:-1 320:-1 321:-1 322:-1 323:-1 324:-1 325:-1 326:-1 327:-1 328:-1 329:-1 330:-0.247059 331:0.945098 332:-0.654902 333:-1 334:-1 341:1 342:1 343:0.152941 344:-0.960784 345:-1 346:-1 347:-1 348:-1 349:-1 350:-1 351:-1 352:-1 353:-1 354:-1 355:-1 356:-1 357:-1 358:-0.788235 359:0.992157 360:0.32549 361:-1 362:-1 369:1 370:0.929412 371:-0.819608 372:-1 373:-1 374:-1 375:-1 376:-1 377:-1 378:-1 379:-1 380:-1 381:-1 382:-1 383:-1 384:-1 385:-1 386:-0.960784 387:0.592157 388:0.992157 389:-1 390:-1 397:0.945098 398:-0.0352941 399:-1 400:-1 401:-1 402:-1 403:-1 404:-1 405:-1 406:-1 407:-1 408:-1 409:-1 410:-1 411:-1 412:-1 413:-1 414:-0.835294 415:0.882353 416:0.992157 417:-1 418:-1 425:0.278431 426:0.301961 427:-1 428:-1 429:-1 430:-1 431:-1 432:-1 433:-1 434:-1 435:-1 436:-1 437:-1 438:-1 439:-1 440:-1 441:-0.992157 442:-0.505882 443:0.992157 444:0.992157 445:-1 446:-1 453:-0.592157 454:0.796078 455:-0.858824 456:-1 457:-1 458:-1 459:-1 460:-1 461:-1 462:-1 463:-1 464:-1 465:-1 466:-1 467:-1 468:-1 469:-0.458824 470:0.992157 471:0.992157 472:0.294118 473:-1 474:-1 481:-1 482:0.701961 483:0.552941 484:-0.435294 485:-1 486:-1 487:-1 488:-1 489:-1 490:-1 491:-1 492:-1 493:-1 494:-1 495:-0.858824 496:0.0666667 497:0.960784 498:0.992157 499:0.270588 500:-0.976471 501:-1 502:-1 508:-1 509:-1 510:-0.72549 511:0.333333 512:0.968627 513:0.2 514:-0.741176 515:-1 516:-1 517:-1 518:-1 519:-1 520:-0.819608 521:-0.576471 522:-0.105882 523:0.592157 524:0.992157 525:0.921569 526:0.419608 527:-0.952941 528:-1 529:-1 530:-1 536:-1 537:-1 538:-1 539:-0.945098 540:0.207843 541:0.811765 542:0.882353 543:0.231373 544:0.0117647 545:0.670588 546:0.717647 547:0.717647 548:0.827451 549:0.992157 550:0.992157 551:0.992157 552:0.921569 553:-0.32549 554:-1 555:-1 556:-1 557:-1 564:-1 565:-1 566:-1 567:-1 568:-1 569:-0.827451 570:-0.0745098 571:0.529412 572:0.984314 573:0.796078 574:0.890196 575:0.992157 576:0.827451 577:0.521569 578:0.0745098 579:-0.0980392 580:-0.694118 581:-1 582:-1 583:-1 584:-1 585:-1 592:-1 593:-1 594:-1 595:-1 596:-1 597:-1 598:-1 599:-1 600:-0.521569 601:-0.960784 602:-0.741176 603:-0.513725 604:-0.890196 605:-1 606:-1 607:-1 608:-1 609:-1 610:-1 611:-1 612:-1 620:-1 621:-1 622:-1 623:-1 624:-1 625:-1 626:-1 627:-1 628:-1 629:-1 630:-1 631:-1 632:-1 633:-1 634:-1 635:-1 636:-1 637:-1 638:-1 639:-1 640:-1 649:-1 650:-1 651:-1 652:-1 653:-1 654:-1 655:-1 656:-1 657:-1 658:-1 659:-1 660:-1 661:-1 662:-1 663:-1 664:-1 665:-1 666:-1 667:-1 678:-1 679:-1 680:-1 681:-1 682:-1 683:-1 684:-1 685:-1 686:-1 687:-1 688:-1 689:-1 690:-1 691:-1 692:-1 693:-1 694:-1 711:-1 712:-1 713:-1 714:-1 715:-1 716:-1 
0.4730337261236083 68:-1 69:-1 94:-1 95:-1 96:-1 97:-1 98:-1 99:-1 100:-1 101:-1 102:-1 103:-1 104:-1 105:-1 106:-1 107:-1 108:-1 120:-1 121:-1 122:-1 123:-1 124:-1 125:-1 126:-1 127:-1 128:-1 129:-1 130:-1 131:-1 132:-1 133:-1 134:-1 135:-1 136:-1 147:-1 148:-1 149:-1 150:-1 151:-0.356863 152:0.482353 153:0.74902 154:0.192157 155:-0.772549 156:-1 157:-0.796078 158:0.458824 159:0.0588235 160:-0.952941 161:-1 162:-1 163:-1 164:-1 165:-1 174:-1 175:-1 176:-1 177:-1 178:-0.0352941 179:0.654902 180:-0.356863 181:-0.670588 182:0.223529 183:0.968627 184:-0.192157 185:-0.87451 186:-0.215686 187:0.819608 188:0.0431373 189:-1 190:-1 191:-1 192:-1 193:-1 202:-1 203:-1 204:-1 205:-0.464567 206:0.882353 207:-0.607843 208:-1 209:-1 210:-0.992157 211:-0.239216 212:0.905882 213:-0.411765 214:-1 215:-0.113725 216:0.913725 217:-0.505882 218:-1 219:-1 220:-1 221:-1 222:-1 229:-1 230:-1 231:-1 232:-1 233:0.411765 234:0.443137 235:-1 236:-1 237:-1 238:-1 239:-1 240:-0.380392 241:0.756863 242:-0.301961 243:-0.976471 244:0.72549 245:0.482353 246:-1 247:-1 248:-1 249:-1 250:-1 257:-1 258:-1 259:-1 260:-0.543307 261:0.976471 262:-0.615686 263:-1 264:-1 265:-1 266:-1 267:-1 268:-1 269:-0.505882 270:0.317647 271:-0.262745 272:-0.239216 273:0.968627 274:-0.32549 275:-1 276:-1 277:-1 278:-1 285:-1 286:-1 287:-1 288:-0.639216 289:0.882353 290:-0.866667 291:-1 292:-1 293:-1 294:-1 295:-1 296:-1 297:-1 298:-1 299:-1 300:-0.898039 301:0.835294 302:0.32549 303:-1 304:-1 305:-1 306:-1 313:-1 314:-1 315:-1 316:-0.372549 317:0.686275 318:-1 319:-1 320:-1 321:-1 322:-1 323:-1 324:-1 325:-1 326:-1 327:-1 328:-1 329:0.741176 330:0.364706 331:-1 332:-1 333:-1 334:-1 341:-1 342:-1 343:-1 344:-0.639216 345:0.686275 346:-1 347:-1 348:-1 349:-1 350:-1 351:-1 352:-1 353:-1 354:-1 355:-1 356:-1 357:0.709804 358:0.811765 359:-1 360:-1 361:-1 362:-1 369:-1 370:-1 371:-1 372:-0.639216 373:0.772549 374:-0.937255 375:-1 376:-1 377:-1 378:-1 379:-1 380:-1 381:-1 382:-1 383:-1 384:-1 385:0.223529 386:0.772549 387:-0.898039 388:-1 389:-1 390:-1 397:-1 398:-1 399:-1 400:-0.239216 401:0.992157 402:-0.796078 403:-1 404:-1 405:-1 406:-1 407:-1 408:-1 409:-1 410:-1 411:-1 412:-1 413:0.223529 414:0.992157 415:-0.639216 416:-1 417:-1 418:-1 425:-1 426:-1 427:-1 428:-0.239216 429:1 430:-0.796078 431:-1 432:-1 433:-1 434:-1 435:-1 436:-1 437:-1 438:-1 439:-1 440:-1 441:-0.145098 442:0.960784 443:-0.72549 444:-1 445:-1 446:-1 453:-1 454:-1 455:-1 456:-0.639216 457:0.992157 458:-0.294118 459:-1 460:-1 461:-1 462:-1 463:-1 464:-1 465:-1 466:-1 467:-1 468:-1 469:0.0823529 470:0.87451 471:-0.905882 472:-1 473:-1 474:-1 481:-1 482:-1 483:-1 484:-0.639216 485:0.992157 486:-0.286275 487:-1 488:-1 489:-1 490:-1 491:-1 492:-1 493:-1 494:-1 495:-1 496:-1 497:0.223529 498:0.615686 499:-1 500:-1 501:-1 502:-1 508:-1 509:-1 510:-1 511:-1 512:-0.968627 513:0.85098 514:0.0509804 515:-1 516:-1 517:-1 518:-1 519:-1 520:-1 521:-1 522:-1 523:-1 524:-1 525:0.435294 526:0.32549 527:-1 528:-1 529:-1 530:-1 536:-1 537:-1 538:-1 539:-1 540:-1 541:0.247059 542:0.85098 543:-0.835294 544:-1 545:-1 546:-1 547:-1 548:-1 549:-1 550:-1 551:-1 552:-0.898039 553:0.835294 554:0.00392157 555:-1 556:-1 557:-1 564:-1 565:-1 566:-1 567:-1 568:-1 569:-0.113725 570:0.992157 571:-0.0588235 572:-1 573:-1 574:-1 575:-1 576:-1 577:-1 578:-1 579:-1 580:0.0196078 581:0.866667 582:-0.811765 583:-1 584:-1 585:-1 592:-1 593:-1 594:-1 595:-1 596:-1 597:-0.796078 598:0.701961 599:0.960784 600:-0.223529 601:-1 602:-1 603:-1 604:-1 605:-1 606:-1 607:-0.6 608:0.835294 609:0.309804 610:-1 611:-1 612:-1 620:-1 621:-1 622:-1 623:-1 624:-1 625:-1 626:-0.701961 627:0.796078 628:0.960784 629:-0.0980392 630:-1 631:-1 632:-1 633:-1 634:-0.584314 635:0.835294 636:0.529412 637:-0.796078 638:-1 639:-1 640:-1 649:-1 650:-1 651:-1 652:-1 653:-1 654:-1 655:-0.796078 656:0.521569 657:0.968627 658:0.443137 659:-0.317647 660:-0.176471 661:0.443137 662:0.960784 663:0.309804 664:-0.850394 665:-1 666:-1 667:-1 678:-1 679:-1 680:-1 681:-1 682:-1 683:-1 684:-0.96063 685:0.32549 686:0.992157 687:0.992157 688:0.992157 689:0.519685 690:-0.462451 691:-1 692:-1 693:-1 694:-1 711:-1 712:-1 713:-1 714:-1 715:-1 716:-1 
0.4876424282468636 68:-1 69:-1 94:-1 95:-1 96:-1 97:-1 98:-1 99:-1 100:-1 101:-1 102:-1 103:-1 104:-1 105:-1 106:-1 107:-1 108:-1 120:-1 121:-1 122:-1 123:-1 124:-1 125:-1 126:-1 127:-1 128:-0.960784 129:-0.129412 130:0.85098 131:1 132:0.560784 133:-1 134:-1 135:-1 136:-1 147:-1 148:-1 149:-1 150:-1 151:-1 152:-1 153:-1 154:-1 155:-0.764706 156:0.0901961 157:0.984314 158:0.552941 159:0.741176 160:0.858824 161:0.388235 162:0.354331 163:-0.795276 164:-1 165:-1 174:-1 175:-1 176:-1 177:-1 178:-1 179:-1 180:-1 181:-1 182:-0.756863 183:0.686275 184:0.992157 185:0.215686 186:-0.937255 187:0.0431373 188:0.819608 189:0.207843 190:0.921569 191:0.496063 192:-1 193:-1 202:-1 203:-1 204:-1 205:-1 206:-1 207:-1 208:-1 209:-0.968627 210:0.482353 211:0.913725 212:0.215686 213:-0.968627 214:-1 215:-0.498039 216:-0.631373 217:-1 218:-0.85098 219:0.913386 220:-0.501976 221:-1 222:-1 229:-1 230:-1 231:-1 232:-1 233:-1 234:-1 235:-1 236:-0.937255 237:0.419608 238:0.85098 239:-0.498039 240:-1 241:-1 242:-1 243:-1 244:-1 245:-1 246:-1 247:0.215686 248:-0.480315 249:-1 250:-1 257:-1 258:-1 259:-1 260:-1 261:-1 262:-1 263:-1 264:0.0666667 265:0.866667 266:-0.47451 267:-1 268:-1 269:-1 270:-1 271:-1 272:-1 273:-1 274:-1 275:0.0901961 276:-0.661417 277:-1 278:-1 285:-1 286:-1 287:-1 288:-1 289:-1 290:-0.976471 291:0.0666667 292:0.929412 293:-0.521569 294:-1 295:-1 296:-1 297:-1 298:-1 299:-1 300:-1 301:-1 302:-0.913725 303:0.576471 304:-1 305:-1 306:-1 313:-1 314:-1 315:-1 316:-1 317:-1 318:-0.027451 319:0.984314 320:0.215686 321:-1 322:-1 323:-1 324:-1 325:-1 326:-1 327:-1 328:-1 329:-1 330:-0.756863 331:0.639216 332:-1 333:-1 334:-1 341:-1 342:-1 343:-1 344:-1 345:-0.945098 346:0.513725 347:0.47451 348:-0.952941 349:-1 350:-1 351:-1 352:-1 353:-1 354:-1 355:-1 356:-1 357:-1 358:-0.0431373 359:0.372549 360:-1 361:-1 362:-1 369:-1 370:-1 371:-1 372:-1 373:0.309804 374:0.796078 375:-0.647059 376:-1 377:-1 378:-1 379:-1 380:-1 381:-1 382:-1 383:-1 384:-1 385:-1 386:0.709804 387:-0.223529 388:-1 389:-1 390:-1 397:-1 398:-1 399:-1 400:-1 401:0.913725 402:-0.309804 403:-1 404:-1 405:-1 406:-1 407:-1 408:-1 409:-1 410:-1 411:-1 412:-1 413:-0.905882 414:0.843137 415:-0.317647 416:-1 417:-1 418:-1 425:-1 426:-1 427:-1 428:-0.788235 429:0.811765 430:-0.788235 431:-1 432:-1 433:-1 434:-1 435:-1 436:-1 437:-1 438:-1 439:-1 440:-0.694118 441:0.6 442:0.294118 443:-1 444:-1 445:-1 446:-1 453:-1 454:-1 455:-1 456:0.498039 457:-0.239216 458:-1 459:-1 460:-1 461:-1 462:-1 463:-1 464:-1 465:-1 466:-1 467:-0.129412 468:0.72549 469:0.984314 470:-0.686275 471:-1 472:-1 473:-1 474:-1 481:-1 482:-1 483:-0.498039 484:0.976471 485:-0.921569 486:-1 487:-1 488:-1 489:-1 490:-1 491:-1 492:-1 493:-1 494:-0.513725 495:0.913725 496:0.756863 497:-0.34902 498:-0.992157 499:-1 500:-1 501:-1 502:-1 508:-1 509:-1 510:-1 511:-0.47451 512:0.984314 513:-0.921569 514:-1 515:-1 516:-1 517:-1 518:-1 519:-1 520:-0.937255 521:0.0352941 522:0.866667 523:0.952941 524:-0.160784 525:-1 526:-1 527:-1 528:-1 529:-1 530:-1 536:-1 537:-1 538:-1 539:-0.47451 540:0.984314 541:-0.921569 542:-1 543:-1 544:-1 545:-1 546:-1 547:-0.694118 548:0.623529 549:0.984314 550:0.717647 551:-0.192157 552:-1 553:-1 554:-1 555:-1 556:-1 557:-1 564:-1 565:-1 566:-1 567:-0.47451 568:0.984314 569:-0.921569 570:-1 571:-1 572:-0.913725 573:-0.905882 574:-0.262745 575:0.780392 576:0.984314 577:0.294118 578:-0.74902 579:-1 580:-1 581:-1 582:-1 583:-1 584:-1 585:-1 592:-1 593:-1 594:-1 595:-0.47451 596:0.984314 597:0.247059 598:0.215686 599:0.215686 600:0.921569 601:0.984314 602:0.984314 603:0.835294 604:0.0509804 605:-1 606:-1 607:-1 608:-1 609:-1 610:-1 611:-1 612:-1 620:-1 621:-1 622:-1 623:-0.470356 624:0.984314 625:0.984314 626:0.984314 627:0.984314 628:0.984314 629:0.882353 630:-0.262745 631:-0.709804 632:-1 633:-1 634:-1 635:-1 636:-1 637:-1 638:-1 639:-1 640:-1 649:-1 650:-1 651:-0.928854 652:-0.73913 653:0.537255 654:0.984314 655:0.301961 656:0.0823529 657:-0.788235 658:-1 659:-1 660:-1 661:-1 662:-1 663:-1 664:-1 665:-1 666:-1 667:-1 678:-1 679:-1 680:-1 681:-1 682:-1 683:-1 684:-1 685:-1 686:-1 687:-1 688:-1 689:-1 690:-1 691:-1 692:-1 693:-1 694:-1 711:-1 712:-1 713:-1 714:-1 715:-1 716:-1 
0.2406660658325494 68:-1 69:-1 94:-1 95:-1 96:-1 97:-1 98:-1 99:-1 100:-1 101:-1 102:-1 103:-1 104:-1 105:-1 106:-1 107:-1 108:-1 120:-1 121:-1 122:-1 123:-1 124:-1 125:-1 126:-1 127:-1 128:-1 129:-1 130:-1 131:-1 132:-1 133:-1 134:-1 135:-1 136:-1 147:-1 148:-1 149:-1 150:-0.960474 151:-0.388235 152:0.231373 153:0.803922 154:0.176471 155:-0.678431 156:-1 157:-1 158:-1 159:-1 160:-0.882353 161:-0.960784 162:-1 163:-1 164:-1 165:-1 174:-1 175:-1 176:-1 177:-0.754941 178:0.537255 179:0.992157 180:0.294118 181:-0.552941 182:-0.560784 183:-0.843137 184:-0.254902 185:-0.254902 186:-0.254902 187:0.505882 188:0.686275 189:0.529412 190:-0.45098 191:-1 192:-1 193:-1 202:-1 203:-1 204:-1 205:0.448819 206:0.882353 207:-0.670588 208:-0.85098 209:-0.168627 210:0.458824 211:0.937255 212:0.992157 213:0.992157 214:0.992157 215:0.992157 216:0.992157 217:1 218:0.976471 219:-0.149606 220:-1 221:-1 222:-1 229:-1 230:-1 231:-1 232:-0.788235 233:0.858824 234:-0.411765 235:-1 236:0.207843 237:0.992157 238:0.992157 239:0.992157 240:0.47451 241:0.341176 242:0.0509804 243:-0.47451 244:-0.47451 245:-0.47451 246:0.247059 247:0.976471 248:-0.188976 249:-1 250:-1 257:-1 258:-1 259:-1 260:-0.204724 261:0.388235 262:-0.984314 263:-0.701961 264:0.866667 265:0.254902 266:-0.709804 267:-0.843137 268:-0.968627 269:-1 270:-1 271:-1 272:-1 273:-1 274:-0.952941 275:0.317647 276:0.551181 277:-1 278:-1 285:-1 286:-1 287:-0.787402 288:0.945098 289:-0.223529 290:-1 291:-0.584314 292:-0.32549 293:-1 294:-1 295:-1 296:-1 297:-1 298:-1 299:-1 300:-1 301:-1 302:-1 303:-0.0980392 304:0.545098 305:-1 306:-1 313:-1 314:-1 315:-0.254902 316:0.741176 317:-0.937255 318:-1 319:-1 320:-1 321:-1 322:-1 323:-1 324:-1 325:-1 326:-1 327:-1 328:-1 329:-1 330:-1 331:-0.0980392 332:0.545098 333:-1 334:-1 341:-1 342:-1 343:-0.254902 344:0.709804 345:-1 346:-1 347:-1 348:-1 349:-1 350:-1 351:-1 352:-1 353:-1 354:-1 355:-1 356:-1 357:-1 358:-1 359:-0.0980392 360:0.545098 361:-1 362:-1 369:-1 370:-1 371:0.419608 372:0.0196078 373:-1 374:-1 375:-1 376:-1 377:-1 378:-1 379:-1 380:-1 381:-1 382:-1 383:-1 384:-1 385:-1 386:-1 387:-0.0980392 388:0.545098 389:-1 390:-1 397:-1 398:-1 399:0.552941 400:-0.105882 401:-1 402:-1 403:-1 404:-1 405:-1 406:-1 407:-1 408:-1 409:-1 410:-1 411:-1 412:-1 413:-1 414:-1 415:-0.0980392 416:0.545098 417:-1 418:-1 425:-1 426:-1 427:0.231373 428:-0.105882 429:-1 430:-1 431:-1 432:-1 433:-1 434:-1 435:-1 436:-1 437:-1 438:-1 439:-1 440:-1 441:-1 442:-1 443:-0.0980392 444:0.545098 445:-1 446:-1 453:-1 454:-1 455:-0.254902 456:0.356863 457:-1 458:-1 459:-1 460:-1 461:-1 462:-1 463:-1 464:-1 465:-1 466:-1 467:-1 468:-1 469:-1 470:-0.694118 471:0.85098 472:-0.0352941 473:-1 474:-1 481:-1 482:-1 483:-0.254902 484:0.709804 485:-1 486:-1 487:-1 488:-1 489:-1 490:-1 491:-1 492:-1 493:-1 494:-1 495:-1 496:-1 497:-1 498:0.152941 499:0.913725 500:-1 501:-1 502:-1 508:-1 509:-1 510:-1 511:-0.254902 512:0.858824 513:-0.717647 514:-1 515:-1 516:-1 517:-1 518:-1 519:-1 520:-1 521:-1 522:-1 523:-1 524:-1 525:-0.811765 526:0.694118 527:0.145098 528:-1 529:-1 530:-1 536:-1 537:-1 538:-1 539:-0.788235 540:0.945098 541:0.309804 542:-0.945098 543:-1 544:-1 545:-1 546:-1 547:-1 548:-1 549:-1 550:-1 551:-1 552:-1 553:0.568627 554:0.835294 555:-0.568627 556:-1 557:-1 564:-1 565:-1 566:-1 567:-1 568:0.45098 569:0.992157 570:-0.356863 571:-0.945098 572:-1 573:-1 574:-1 575:-1 576:-1 577:-1 578:-1 579:-0.976471 580:0.00392157 581:0.960784 582:-0.317647 583:-1 584:-1 585:-1 592:-1 593:-1 594:-1 595:-1 596:-0.788235 597:0.858824 598:0.992157 599:-0.0196078 600:-0.717647 601:-1 602:-1 603:-1 604:-1 605:-1 606:-0.811765 607:0.0431373 608:0.992157 609:0.0588235 610:-1 611:-1 612:-1 620:-1 621:-1 622:-1 623:-1 624:-1 625:-0.788235 626:0.827451 627:0.992157 628:0.811765 629:-0.0980392 630:-0.427451 631:-0.6 632:-0.262745 633:0.0352941 634:0.811765 635:0.984314 636:0.32549 637:-0.890196 638:-1 639:-1 640:-1 649:-1 650:-1 651:-1 652:-1 653:-1 654:-0.623529 655:0.294118 656:0.756863 657:0.992157 658:0.992157 659:0.992157 660:0.992157 661:0.992157 662:0.552941 663:-0.356863 664:-1 665:-1 666:-1 667:-1 678:-1 679:-1 680:-1 681:-1 682:-1 683:-1 684:-0.771654 685:0.176471 686:0.192157 687:0.827451 688:0.176471 689:-0.283465 690:-0.762846 691:-1 692:-1 693:-1 694:-1 711:-1 712:-1 713:-1 714:-1 715:-1 716:-1 
1 68:-1 69:-1 94:-1 95:-1 96:-1 97:-1 98:-1 99:-1 100:-1 101:-1 102:-1 103:-1 104:-1 105:-1 106:-1 107:-1 108:-1 120:-1 121:-1 122:-1 123:-1 124:-1 125:-1 126:-1 127:-1 128:-1 129:-1 130:-1 131:-1 132:-1 133:-1 134:-1 135:-1 136:-1 147:-1 148:-1 149:-1 150:-1 151:-0.74902 152:-0.184314 153:0.466667 154:0.87451 155:-0.152941 156:-1 157:-1 158:-1 159:-1 160:-1 161:-1 162:-1 163:-1 164:-1 165:-1 174:-1 175:-1 176:-1 177:-1 178:-1 179:0.2 180:0.992157 181:0.87451 182:0.152941 183:0.85098 184:-0.105882 185:-1 186:-1 187:-1 188:-1 189:-1 190:-1 191:-1 192:-1 193:-1 202:-1 203:-1 204:-1 205:-1 206:-1 207:0.701961 208:0.976471 209:-0.207843 210:-0.733333 211:-0.482353 212:0.984314 213:-0.278431 214:-1 215:-1 216:-1 217:-1 218:-1 219:-1 220:-1 221:-1 222:-1 229:-1 230:-1 231:-1 232:-1 233:-1 234:-1 235:0.701961 236:0.937255 237:0.270588 238:0.552941 239:-1 240:-0.027451 241:0.74902 242:-0.87451 243:-1 244:-1 245:-1 246:-1 247:-1 248:-1 249:-1 250:-1 257:-1 258:-1 259:-1 260:-1 261:-1 262:-1 263:0.701961 264:1 265:1 266:0.0196078 267:-1 268:-0.952941 269:0.403922 270:-0.0588235 271:-1 272:-1 273:-1 274:-1 275:-1 276:-1 277:-1 278:-1 285:-1 286:-1 287:-1 288:-1 289:-1 290:-1 291:0.701961 292:0.992157 293:0.992157 294:-0.639216 295:-1 296:-1 297:-0.443137 298:0.694118 299:-0.819608 300:-1 301:-1 302:-1 303:-1 304:-1 305:-1 306:-1 313:-1 314:-1 315:-1 316:-1 317:-1 318:-1 319:-0.6 320:0.960784 321:0.992157 322:-0.647059 323:-1 324:-1 325:-1 326:0.372549 327:-0.317647 328:-1 329:-1 330:-1 331:-1 332:-1 333:-1 334:-1 341:-1 342:-1 343:-1 344:-1 345:-1 346:-1 347:-1 348:0.882353 349:0.74902 350:-1 351:-1 352:-1 353:-1 354:-0.0980392 355:0.341176 356:-1 357:-1 358:-1 359:-1 360:-1 361:-1 362:-1 369:-1 370:-1 371:-1 372:-1 373:-1 374:-1 375:-1 376:0.882353 377:0.755906 378:-1 379:-1 380:-1 381:-1 382:-0.898039 383:0.858824 384:-0.890196 385:-1 386:-1 387:-1 388:-1 389:-1 390:-1 397:-1 398:-1 399:-1 400:-1 401:-1 402:-1 403:-1 404:0.882353 405:0.74902 406:-1 407:-1 408:-1 409:-1 410:-1 411:0.388235 412:-0.513725 413:-1 414:-1 415:-1 416:-1 417:-1 418:-1 425:-1 426:-1 427:-1 428:-1 429:-1 430:-1 431:-1 432:0.890196 433:0.756863 434:-1 435:-1 436:-1 437:-1 438:-1 439:0.341176 440:-0.270588 441:-1 442:-1 443:-1 444:-1 445:-1 446:-1 453:-1 454:-1 455:-1 456:-1 457:-1 458:-1 459:-1 460:0.590551 461:0.74902 462:-1 463:-1 464:-1 465:-1 466:-1 467:0.333333 468:0.0823529 469:-1 470:-1 471:-1 472:-1 473:-1 474:-1 481:-1 482:-1 483:-1 484:-1 485:-1 486:-1 487:-1 488:0.270588 489:0.74902 490:-1 491:-1 492:-1 493:-1 494:-1 495:0.168627 496:0.0823529 497:-1 498:-1 499:-1 500:-1 501:-1 502:-1 508:-1 509:-1 510:-1 511:-1 512:-1 513:-1 514:-1 515:-1 516:0.270588 517:0.74902 518:-1 519:-1 520:-1 521:-1 522:-1 523:-0.0431373 524:0.0823529 525:-1 526:-1 527:-1 528:-1 529:-1 530:-1 536:-1 537:-1 538:-1 539:-1 540:-1 541:-1 542:-1 543:-1 544:0.270588 545:0.74902 546:-1 547:-1 548:-1 549:-1 550:-1 551:0.333333 552:-0.00392157 553:-1 554:-1 555:-1 556:-1 557:-1 564:-1 565:-1 566:-1 567:-1 568:-1 569:-1 570:-1 571:-1 572:0.270588 573:0.74902 574:-1 575:-1 576:-1 577:-1 578:-1 579:0.662745 580:-0.513725 581:-1 582:-1 583:-1 584:-1 585:-1 592:-1 593:-1 594:-1 595:-1 596:-1 597:-1 598:-1 599:-1 600:0.270588 601:0.905882 602:-0.74902 603:-1 604:-1 605:-1 606:-0.0745098 607:0.47451 608:-0.968627 609:-1 610:-1 611:-1 612:-1 620:-1 621:-1 622:-1 623:-1 624:-1 625:-1 626:-1 627:-1 628:0.0117647 629:0.992157 630:0.403922 631:-1 632:-1 633:-0.396078 634:0.866667 635:-0.6 636:-1 637:-1 638:-1 639:-1 640:-1 649:-1 650:-1 651:-1 652:-1 653:-1 654:-1 655:-1 656:-0.827451 657:0.945098 658:0.843137 659:0.0823529 660:0.0901961 661:0.921569 662:-0.168627 663:-1 664:-1 665:-1 666:-1 667:-1 678:-1 679:-1 680:-1 681:-1 682:-1 683:-1 684:-0.992126 685:-0.843137 686:-0.411765 687:0.756863 688:0.764706 689:-0.00787402 690:-0.976285 691:-1 692:-1 693:-1 694:-1 711:-1 712:-1 713:-1 714:-1 715:-1 716:-1 
0.4002312843553015 68:-1 69:-1 94:-1 95:-1 96:-1 97:-1 98:-1 99:-1 100:-1 101:-1 102:-1 103:-1 104:-1 105:-1 106:-1 107:-1 108:-1 120:-1 121:-1 122:-1 123:-1 124:-1 125:-1 126:-1 127:-1 128:-1 129:-1 130:-1 131:-1 132:-1 133:-1 134:-1 135:-1 136:-1 147:-1 148:-1 149:-1 150:-1 151:-1 152:-0.835294 153:-0.427451 154:0.176471 155:0.278431 156:0.278431 157:-0.427451 158:-0.552941 159:-1 160:-1 161:-1 162:-1 163:-1 164:-1 165:-1 174:-1 175:-1 176:-1 177:-1 178:-0.968627 179:-0.0588235 180:0.890196 181:0.984314 182:0.984314 183:0.796078 184:0.552941 185:0.560784 186:0.921569 187:-0.176471 188:-1 189:-1 190:-1 191:-1 192:-1 193:-1 202:-1 203:-1 204:-1 205:-0.850394 206:0.419608 207:0.882353 208:0.247059 209:-0.670588 210:0.129412 211:0.552941 212:0.00392157 213:-0.709804 214:-0.145098 215:0.945098 216:-0.529412 217:-1 218:-1 219:-1 220:-1 221:-1 222:-1 229:-1 230:-1 231:-1 232:-1 233:0.301961 234:0.866667 235:-0.521569 236:-1 237:-1 238:-0.788235 239:-0.0117647 240:0.639216 241:0.890196 242:0.984314 243:0.984314 244:0.74902 245:-0.145098 246:-0.890196 247:-1 248:-1 249:-1 250:-1 257:-1 258:-1 259:-1 260:-0.685039 261:0.905882 262:-0.372549 263:-1 264:-1 265:-1 266:-1 267:-1 268:-1 269:-0.835294 270:-0.435294 271:0.168627 272:0.317647 273:0.984314 274:0.827451 275:0.0117647 276:-0.897638 277:-1 278:-1 285:-1 286:-1 287:-1 288:0.6 289:0.905882 290:-0.694118 291:-1 292:-1 293:-1 294:-1 295:-1 296:-1 297:-1 298:-1 299:-1 300:-1 301:-1 302:0.168627 303:0.952941 304:0.890196 305:-0.015748 306:-0.592233 313:-1 314:-1 315:-0.670588 316:0.921569 317:-0.113725 318:-1 319:-1 320:-1 321:-1 322:-1 323:-1 324:-1 325:-1 326:-1 327:-1 328:-1 329:-1 330:-1 331:-0.717647 332:0.262745 333:0.992126 334:0.672727 341:-1 342:-1 343:0.278431 344:0.921569 345:-0.756863 346:-1 347:-1 348:-1 349:-1 350:-1 351:-1 352:-1 353:-1 354:-1 355:-1 356:-1 357:-1 358:-1 359:-1 360:-0.952941 361:0.629921 362:0.912351 369:-1 370:-1 371:0.992157 372:0.552941 373:-1 374:-1 375:-1 376:-1 377:-1 378:-1 379:-1 380:-1 381:-1 382:-1 383:-1 384:-1 385:-1 386:-1 387:-1 388:-1 389:0.566929 390:0.698413 397:-1 398:-1 399:0.992157 400:0.0431373 401:-1 402:-1 403:-1 404:-1 405:-1 406:-1 407:-1 408:-1 409:-1 410:-1 411:-1 412:-1 413:-1 414:-1 415:-1 416:-0.890196 417:0.709804 418:-0.225296 425:-1 426:-1 427:1 428:-0.34902 429:-1 430:-1 431:-1 432:-1 433:-1 434:-1 435:-1 436:-1 437:-1 438:-1 439:-1 440:-1 441:-1 442:-1 443:-1 444:0.2 445:0.945098 446:-0.588933 453:-1 454:-1 455:0.992157 456:-0.858824 457:-1 458:-1 459:-1 460:-1 461:-1 462:-1 463:-1 464:-1 465:-1 466:-1 467:-1 468:-1 469:-1 470:-1 471:-0.74902 472:0.803922 473:-0.317647 474:-1 481:-1 482:-1 483:0.992157 484:-0.505882 485:-1 486:-1 487:-1 488:-1 489:-1 490:-1 491:-1 492:-1 493:-1 494:-1 495:-1 496:-1 497:-1 498:-0.913725 499:0.411765 500:0.239216 501:-1 502:-1 508:-1 509:-1 510:-1 511:0.992157 512:-0.152941 513:-1 514:-1 515:-1 516:-1 517:-1 518:-1 519:-1 520:-1 521:-1 522:-1 523:-1 524:-1 525:-0.945098 526:0.435294 527:0.74902 528:-0.835294 529:-1 530:-1 536:-1 537:-1 538:-1 539:0.992157 540:-0.152941 541:-1 542:-1 543:-1 544:-1 545:-1 546:-1 547:-1 548:-1 549:-1 550:-1 551:-1 552:-0.639216 553:0.623529 554:0.788235 555:-0.709804 556:-1 557:-1 564:-1 565:-1 566:-1 567:0.788235 568:0.835294 569:-0.819608 570:-1 571:-1 572:-1 573:-1 574:-1 575:-1 576:-1 577:-1 578:-0.87451 579:-0.32549 580:0.835294 581:0.788235 582:-0.741176 583:-1 584:-1 585:-1 592:-1 593:-1 594:-1 595:-0.498039 596:0.952941 597:-0.568627 598:-1 599:-1 600:-1 601:-1 602:-1 603:-1 604:-1 605:-0.364706 606:0.568627 607:0.984314 608:0.592157 609:-0.709804 610:-1 611:-1 612:-1 620:-1 621:-1 622:-1 623:-1 624:0.388235 625:0.843137 626:0.0901961 627:-0.2 628:-0.458824 629:-0.301961 630:0.00392157 631:0.00392157 632:0.505882 633:0.992157 634:0.560784 635:-0.364706 636:-0.937255 637:-1 638:-1 639:-1 640:-1 649:-1 650:-1 651:-1 652:-0.905138 653:-0.215686 654:0.686275 655:0.945098 656:0.992157 657:0.984314 658:0.960784 659:0.788235 660:0.129412 661:-0.576471 662:-0.968627 663:-1 664:-1 665:-1 666:-1 667:-1 678:-1 679:-1 680:-1 681:-1 682:-1 683:-0.592157 684:-0.433071 685:-0.435294 686:-0.513725 687:-1 688:-1 689:-1 690:-1 691:-1 692:-1 693:-1 694:-1 711:-1 712:-1 713:-1 714:-1 715:-1 716:-1 
0.4748820589800158 68:-1 69:-1 94:-1 95:-1 96:-1 97:-1 98:-1 99:-1 100:-1 101:-1 102:-1 103:-1 104:-1 105:-1 106:-1 107:-1 108:-1 120:-1 121:-1 122:-1 123:-1 124:-1 125:-0.835294 126:-0.87451 127:-0.176471 128:0.466667 129:1 130:1 131:0.498039 132:-0.152941 133:-0.701961 134:-1 135:-1 136:-1 147:-1 148:-1 149:-1 150:-1 151:-1 152:-0.466667 153:0.301961 154:0.74902 155:0.717647 156:0.521569 157:0.0588235 158:0.32549 159:0.85098 160:0.968627 161:0.87451 162:-0.559055 163:-1 164:-1 165:-1 174:-1 175:-1 176:-1 177:-1 178:-1 179:-0.843137 180:0.772549 181:0.992157 182:-0.498039 183:-1 184:-1 185:-1 186:-1 187:-0.796078 188:0.537255 189:0.976471 190:0.207843 191:-1 192:-1 193:-1 202:-1 203:-1 204:-1 205:-1 206:-0.670588 207:0.623529 208:0.380392 209:-0.968627 210:-0.992157 211:-1 212:-1 213:-1 214:-1 215:-1 216:-0.866667 217:-0.223529 218:-0.984314 219:-1 220:-1 221:-1 222:-1 229:-1 230:-1 231:-1 232:-1 233:-1 234:0.427451 235:0.717647 236:-0.427451 237:-1 238:-1 239:-1 240:-1 241:-1 242:-1 243:-1 244:-0.168627 245:0.0196078 246:-1 247:-1 248:-1 249:-1 250:-1 257:-1 258:-1 259:-1 260:-1 261:-1 262:0.427451 263:-0.176471 264:-1 265:-1 266:-1 267:-1 268:-1 269:-1 270:-1 271:-1 272:-0.694118 273:0.482353 274:-1 275:-1 276:-1 277:-1 278:-1 285:-1 286:-1 287:-1 288:-1 289:0.639216 290:0.568627 291:-0.654902 292:-1 293:-1 294:-1 295:-1 296:-1 297:-1 298:-1 299:-1 300:-0.984314 301:0.513725 302:-0.576471 303:-1 304:-1 305:-1 306:-1 313:-1 314:-1 315:-1 316:-0.960784 317:0.717647 318:-0.309804 319:-1 320:-1 321:-1 322:-1 323:-1 324:-1 325:-1 326:-1 327:-1 328:-0.976471 329:0.576471 330:-0.286275 331:-1 332:-1 333:-1 334:-1 341:-1 342:-1 343:-1 344:-0.545098 345:0.929412 346:-0.615686 347:-1 348:-1 349:-1 350:-1 351:-1 352:-1 353:-1 354:-1 355:-1 356:-0.694118 357:0.992157 358:-0.286275 359:-1 360:-1 361:-1 362:-1 369:-1 370:-1 371:-1 372:0.0196078 373:0.796078 374:-1 375:-1 376:-1 377:-1 378:-1 379:-1 380:-1 381:-1 382:-1 383:-1 384:0.0117647 385:0.984314 386:-0.419608 387:-1 388:-1 389:-1 390:-1 397:-1 398:-1 399:-1 400:0.631373 401:0.47451 402:-1 403:-1 404:-1 405:-1 406:-1 407:-1 408:-1 409:-1 410:-1 411:-0.537255 412:0.811765 413:0.952941 414:-1 415:-1 416:-1 417:-1 418:-1 425:-1 426:-1 427:-1 428:0.435294 429:-0.176471 430:-1 431:-1 432:-1 433:-1 434:-1 435:-1 436:-1 437:-1 438:-0.976471 439:0.278431 440:0.992157 441:-0.0666667 442:-1 443:-1 444:-1 445:-1 446:-1 453:-1 454:-1 455:-1 456:0.960784 457:-0.701961 458:-1 459:-1 460:-1 461:-1 462:-1 463:-1 464:-1 465:-1 466:-0.380392 467:0.992157 468:0.0117647 469:-0.960784 470:-1 471:-1 472:-1 473:-1 474:-1 481:-1 482:-1 483:-0.396078 484:0.984314 485:-0.701961 486:-1 487:-1 488:-1 489:-1 490:-1 491:-1 492:-1 493:-0.827451 494:0.74902 495:0.992157 496:-0.372549 497:-1 498:-1 499:-1 500:-1 501:-1 502:-1 508:-1 509:-1 510:-1 511:-0.231373 512:0.976471 513:-0.701961 514:-1 515:-1 516:-1 517:-1 518:-1 519:-1 520:-1 521:0.592157 522:0.992157 523:0.396078 524:-0.937255 525:-1 526:-1 527:-1 528:-1 529:-1 530:-1 536:-1 537:-1 538:-1 539:-0.890196 540:0.960784 541:-0.701961 542:-1 543:-1 544:-1 545:-1 546:-1 547:-0.819608 548:0.568627 549:0.976471 550:0.403922 551:-0.937255 552:-1 553:-1 554:-1 555:-1 556:-1 557:-1 564:-1 565:-1 566:-1 567:-0.00392157 568:0.984314 569:-0.403922 570:-1 571:-1 572:-1 573:-1 574:-0.819608 575:0.6 576:0.992157 577:0.835294 578:-0.74902 579:-1 580:-1 581:-1 582:-1 583:-1 584:-1 585:-1 592:-1 593:-1 594:-1 595:-1 596:0.756863 597:0.654902 598:-0.254902 599:-0.670588 600:-0.121569 601:0.278431 602:0.952941 603:0.992157 604:0.631373 605:-0.623529 606:-1 607:-1 608:-1 609:-1 610:-1 611:-1 612:-1 620:-1 621:-1 622:-1 623:-1 624:-0.694118 625:0.835294 626:0.992157 627:0.905882 628:0.992157 629:0.992157 630:0.835294 631:0.34902 632:-0.929412 633:-1 634:-1 635:-1 636:-1 637:-1 638:-1 639:-1 640:-1 649:-1 650:-1 651:-1 652:-1 653:-0.513725 654:0.780392 655:0.701961 656:0.0196078 657:-0.223529 658:-0.788235 659:-1 660:-1 661:-1 662:-1 663:-1 664:-1 665:-1 666:-1 667:-1 678:-1 679:-1 680:-1 681:-1 682:-1 683:-1 684:-1 685:-1 686:-1 687:-1 688:-1 689:-1 690:-1 691:-1 692:-1 693:-1 694:-1 711:-1 712:-1 713:-1 714:-1 715:-1 716:-1 
0.5746892947689045 68:-1 69:-1 94:-1 95:-1 96:-1 97:-1 98:-1 99:-1 100:-1 101:-1 102:-1 103:-1 104:-1 105:-1 106:-1 107:-1 108:-1 120:-1 121:-1 122:-1 123:-1 124:-1 125:-1 126:-1 127:-1 128:-1 129:-1 130:-1 131:-1 132:-1 133:-1 134:-1 135:-1 136:-1 147:-1 148:-1 149:-1 150:-1 151:-1 152:-1 153:-0.592157 154:0.427451 155:0.898039 156:0.592157 157:0.6 158:0.788235 159:0.247059 160:-0.811765 161:-1 162:-1 163:-1 164:-1 165:-1 174:-1 175:-1 176:-1 177:-1 178:-1 179:-1 180:-0.207843 181:0.819608 182:0.309804 183:-0.521569 184:-1 185:-1 186:-0.843137 187:0.0352941 188:0.498039 189:-0.780392 190:-1 191:-1 192:-1 193:-1 202:-1 203:-1 204:-1 205:-1 206:-0.976471 207:-0.184314 208:0.905882 209:0.223529 210:-0.945098 211:-1 212:-1 213:-1 214:-1 215:-0.976471 216:0.32549 217:0.2 218:-0.984314 219:-1 220:-1 221:-1 222:-1 229:-1 230:-1 231:-1 232:-1 233:-1 234:-0.301961 235:0.992157 236:-0.105882 237:-1 238:-1 239:-1 240:-1 241:-1 242:-1 243:-1 244:-0.215686 245:1 246:-0.72549 247:-1 248:-1 249:-1 250:-1 257:-1 258:-1 259:-1 260:-1 261:-0.811765 262:0.639216 263:0.498039 264:-1 265:-1 266:-1 267:-1 268:-1 269:-1 270:-1 271:-1 272:-1 273:0.85098 274:0.584314 275:-1 276:-1 277:-1 278:-1 285:-1 286:-1 287:-1 288:-1 289:0.105882 290:0.882353 291:-0.803922 292:-1 293:-1 294:-1 295:-1 296:-1 297:-1 298:-1 299:-1 300:-1 301:0.427451 302:0.756863 303:-0.960784 304:-1 305:-1 306:-1 313:-1 314:-1 315:-1 316:-0.678431 317:0.921569 318:-0.0901961 319:-1 320:-1 321:-1 322:-1 323:-1 324:-1 325:-1 326:-1 327:-1 328:-1 329:-0.0588235 330:0.992157 331:-0.733333 332:-1 333:-1 334:-1 341:-1 342:-1 343:-1 344:0.0980392 345:0.670588 346:-0.968627 347:-1 348:-1 349:-1 350:-1 351:-1 352:-1 353:-1 354:-1 355:-1 356:-1 357:0.215686 358:0.992157 359:-0.733333 360:-1 361:-1 362:-1 369:-1 370:-1 371:-0.788235 372:0.890196 373:-0.0352941 374:-1 375:-1 376:-1 377:-1 378:-1 379:-1 380:-1 381:-1 382:-1 383:-1 384:-1 385:0.466667 386:0.945098 387:-0.788235 388:-1 389:-1 390:-1 397:-1 398:-1 399:0.0901961 400:0.780392 401:-0.960784 402:-1 403:-1 404:-1 405:-1 406:-1 407:-1 408:-1 409:-1 410:-1 411:-1 412:-1 413:0.537255 414:0.364706 415:-1 416:-1 417:-1 418:-1 425:-1 426:-1 427:0.72549 428:0.419608 429:-1 430:-1 431:-1 432:-1 433:-1 434:-1 435:-1 436:-1 437:-1 438:-1 439:-1 440:-0.678431 441:0.992157 442:0.152941 443:-1 444:-1 445:-1 446:-1 453:-1 454:-0.921569 455:0.796078 456:-0.207843 457:-1 458:-1 459:-1 460:-1 461:-1 462:-1 463:-1 464:-1 465:-1 466:-1 467:-1 468:-0.466667 469:0.992157 470:-0.333333 471:-1 472:-1 473:-1 474:-1 481:-1 482:-0.87451 483:0.858824 484:-0.6 485:-1 486:-1 487:-1 488:-1 489:-1 490:-1 491:-1 492:-1 493:-1 494:-1 495:-0.968627 496:0.537255 497:0.709804 498:-0.960784 499:-1 500:-1 501:-1 502:-1 508:-1 509:-1 510:-0.72549 511:0.992157 512:-0.529412 513:-1 514:-1 515:-1 516:-1 517:-1 518:-1 519:-1 520:-1 521:-1 522:-1 523:-0.788235 524:0.992157 525:0.027451 526:-1 527:-1 528:-1 529:-1 530:-1 536:-1 537:-1 538:-0.960784 539:0.764706 540:-0.0352941 541:-1 542:-1 543:-1 544:-1 545:-1 546:-1 547:-1 548:-1 549:-1 550:-0.976471 551:0.466667 552:0.631373 553:-0.929412 554:-1 555:-1 556:-1 557:-1 564:-1 565:-1 566:-1 567:0.160784 568:0.458824 569:-1 570:-1 571:-1 572:-1 573:-1 574:-1 575:-1 576:-1 577:-1 578:-0.0196078 579:0.952941 580:-0.458824 581:-1 582:-1 583:-1 584:-1 585:-1 592:-1 593:-1 594:-1 595:-0.890196 596:0.913725 597:-0.74902 598:-1 599:-1 600:-1 601:-1 602:-1 603:-1 604:-1 605:-0.0980392 606:0.945098 607:-0.356863 608:-1 609:-1 610:-1 611:-1 612:-1 620:-1 621:-1 622:-1 623:-1 624:-0.0352941 625:0.537255 626:-0.87451 627:-1 628:-1 629:-1 630:-1 631:-0.709804 632:-0.356863 633:0.905882 634:-0.215686 635:-1 636:-1 637:-1 638:-1 639:-1 640:-1 649:-1 650:-1 651:-1 652:-0.992095 653:-0.0901961 654:0.521569 655:-0.294118 656:-0.866667 657:-0.858824 658:0.2 659:0.72549 660:0.905882 661:-0.215686 662:-1 663:-1 664:-1 665:-1 666:-1 667:-1 678:-1 679:-1 680:-1 681:-1 682:-0.521569 683:0.278431 684:1 685:1 686:0.992157 687:0.741176 688:-0.709804 689:-1 690:-1 691:-1 692:-1 693:-1 694:-1 711:-1 712:-1 713:-1 714:-1 715:-1 716:-1 
0.8949129302707095 68:-1 69:-1 94:-1 95:-1 96:-1 97:-1 98:-1 99:-1 100:-1 101:-1 102:-1 103:-1 104:-1 105:-1 106:-1 107:-1 108:-1 120:-1 121:-1 122:-1 123:-1 124:-1 125:-1 126:-0.552941 127:0.654902 128:0.913725 129:-0.278431 130:-1 131:-1 132:-1 133:-1 134:-1 135:-1 136:-1 147:-1 148:-1 149:-1 150:-1 151:-1 152:-1 153:-0.545098 154:0.882353 155:0.905882 156:0.678431 157:0.905882 158:-0.717647 159:-1 160:-1 161:-1 162:-1 163:-1 164:-1 165:-1 174:-1 175:-1 176:-1 177:-1 178:-1 179:-1 180:-0.741176 181:0.87451 182:0.584314 183:-0.6 184:0.145098 185:0.992157 186:-0.560784 187:-1 188:-1 189:-1 190:-1 191:-1 192:-1 193:-1 202:-1 203:-1 204:-1 205:-1 206:-1 207:-1 208:0.0509804 209:0.992157 210:-0.2 211:-1 212:0.631373 213:0.992157 214:-0.560784 215:-1 216:-1 217:-1 218:-1 219:-1 220:-1 221:-1 222:-1 229:-1 230:-1 231:-1 232:-1 233:-1 234:-1 235:-1 236:0.490196 237:0.0117647 238:-0.976471 239:-1 240:0.00392157 241:0.992157 242:-0.152941 243:-1 244:-1 245:-1 246:-1 247:-1 248:-1 249:-1 250:-1 257:-1 258:-1 259:-1 260:-1 261:-1 262:-1 263:-0.2 264:0.976471 265:-0.443137 266:-1 267:-1 268:0.113725 269:0.992157 270:0.113725 271:-1 272:-1 273:-1 274:-1 275:-1 276:-1 277:-1 278:-1 285:-1 286:-1 287:-1 288:-1 289:-1 290:-1 291:0.498039 292:0.47451 293:-0.968627 294:-1 295:-0.929412 296:0.403922 297:0.160784 298:0.772549 299:-0.890196 300:-1 301:-1 302:-1 303:-1 304:-1 305:-1 306:-1 313:-1 314:-1 315:-1 316:-1 317:-1 318:-0.435294 319:0.976471 320:-0.0823529 321:-1 322:-1 323:-0.960784 324:-0.87451 325:-0.212598 326:0.992157 327:-0.152941 328:-1 329:-1 330:-1 331:-1 332:-1 333:-1 334:-1 341:-1 342:-1 343:-1 344:-1 345:-1 346:0.152941 347:0.992157 348:-0.215686 349:-1 350:-1 351:-1 352:-1 353:-0.755906 354:0.992157 355:0.145098 356:-1 357:-1 358:-1 359:-1 360:-1 361:-1 362:-1 369:-1 370:-1 371:-1 372:-1 373:-1 374:0.152941 375:0.992157 376:-0.764706 377:-1 378:-1 379:-1 380:-1 381:-0.960474 382:0.623529 383:0.490196 384:-1 385:-1 386:-1 387:-1 388:-1 389:-1 390:-1 397:-1 398:-1 399:-1 400:-1 401:-1 402:0.152941 403:0.992157 404:-0.764706 405:-1 406:-1 407:-1 408:-1 409:-1 410:0.560784 411:0.827451 412:-1 413:-1 414:-1 415:-1 416:-1 417:-1 418:-1 425:-1 426:-1 427:-1 428:-1 429:-1 430:0.47451 431:0.788235 432:-0.87451 433:-1 434:-1 435:-1 436:-1 437:-1 438:0.00392157 439:0.827451 440:-1 441:-1 442:-1 443:-1 444:-1 445:-1 446:-1 453:-1 454:-1 455:-1 456:-1 457:-1 458:0.835294 459:0.552941 460:-1 461:-1 462:-1 463:-1 464:-1 465:-1 466:-0.113725 467:0.278431 468:-1 469:-1 470:-1 471:-1 472:-1 473:-1 474:-1 481:-1 482:-1 483:-1 484:-1 485:-1 486:0.835294 487:0.552941 488:-1 489:-1 490:-1 491:-1 492:-1 493:-1 494:0.184314 495:0.145098 496:-1 497:-1 498:-1 499:-1 500:-1 501:-1 502:-1 508:-1 509:-1 510:-1 511:-1 512:-1 513:-1 514:0.309804 515:0.552941 516:-1 517:-1 518:-1 519:-1 520:-1 521:-0.976471 522:0.6 523:0.145098 524:-1 525:-1 526:-1 527:-1 528:-1 529:-1 530:-1 536:-1 537:-1 538:-1 539:-1 540:-1 541:-1 542:0.152941 543:0.733333 544:-0.898039 545:-1 546:-1 547:-1 548:-1 549:-0.482353 550:0.992157 551:0.0980392 552:-1 553:-1 554:-1 555:-1 556:-1 557:-1 564:-1 565:-1 566:-1 567:-1 568:-1 569:-1 570:0.121569 571:0.992157 572:-0.270588 573:-1 574:-1 575:-1 576:-0.945098 577:0.435294 578:0.811765 579:-0.866667 580:-1 581:-1 582:-1 583:-1 584:-1 585:-1 592:-1 593:-1 594:-1 595:-1 596:-1 597:-1 598:-0.701961 599:0.898039 600:0.686275 601:-0.513725 602:-0.976471 603:-0.592157 604:0.341176 605:0.984314 606:-0.152941 607:-1 608:-1 609:-1 610:-1 611:-1 612:-1 620:-1 621:-1 622:-1 623:-1 624:-1 625:-1 626:-1 627:-0.270588 628:0.898039 629:1 630:0.584314 631:0.992157 632:0.992157 633:0.0352941 634:-1 635:-1 636:-1 637:-1 638:-1 639:-1 640:-1 649:-1 650:-1 651:-1 652:-1 653:-1 654:-1 655:-1 656:-0.647059 657:0.223529 658:0.780392 659:0.317647 660:-0.0901961 661:-1 662:-1 663:-1 664:-1 665:-1 666:-1 667:-1 678:-1 679:-1 680:-1 681:-1 682:-1 683:-1 684:-1 685:-1 686:-1 687:-1 688:-1 689:-1 690:-1 691:-1 692:-1 693:-1 694:-1 711:-1 712:-1 713:-1 714:-1 715:-1 716:-1 
0.4740056705380438 68:-1 69:-1 94:-1 95:-1 96:-1 97:-1 98:-1 99:-1 100:-1 101:-1 102:-1 103:-1 104:-1 105:-1 106:-1 107:-1 108:-1 120:-1 121:-1 122:-1 123:-1 124:-0.890196 125:0.74902 126:0.47451 127:-0.176471 128:-0.905882 129:-1 130:-1 131:-1 132:-1 133:-1 134:-1 135:-1 136:-1 147:-1 148:-1 149:-1 150:-1 151:-1 152:0.733333 153:0.803922 154:0.843137 155:0.992157 156:0.458824 157:-0.6 158:-1 159:-1 160:-1 161:-1 162:-1 163:-1 164:-1 165:-1 174:-1 175:-1 176:-1 177:-1 178:-0.929412 179:-0.0196078 180:0.670588 181:-0.905882 182:-0.827451 183:-0.0431373 184:0.858824 185:0.835294 186:-0.615686 187:-1 188:-1 189:-1 190:-1 191:-1 192:-1 193:-1 202:-1 203:-1 204:-1 205:-1 206:-0.176471 207:0.992157 208:-0.333333 209:-1 210:-1 211:-1 212:-0.6 213:0.85098 214:0.717647 215:-0.905882 216:-1 217:-1 218:-1 219:-1 220:-1 221:-1 222:-1 229:-1 230:-1 231:-1 232:-1 233:-0.780392 234:0.843137 235:0.929412 236:-0.937255 237:-1 238:-1 239:-1 240:-1 241:-0.568627 242:0.858824 243:0.411765 244:-1 245:-1 246:-1 247:-1 248:-1 249:-1 250:-1 257:-1 258:-1 259:-1 260:-1 261:-0.545098 262:0.992157 263:-0.223529 264:-1 265:-1 266:-1 267:-1 268:-1 269:-1 270:-0.152941 271:0.976471 272:-0.513725 273:-1 274:-1 275:-1 276:-1 277:-1 278:-1 285:-1 286:-1 287:-1 288:-1 289:-0.545098 290:0.882353 291:-0.764706 292:-1 293:-1 294:-1 295:-1 296:-1 297:-1 298:-0.858824 299:0.6 300:0.733333 301:-0.890196 302:-1 303:-1 304:-1 305:-1 306:-1 313:-1 314:-1 315:-1 316:-1 317:-0.545098 318:0.803922 319:-1 320:-1 321:-1 322:-1 323:-1 324:-1 325:-1 326:-1 327:-0.505882 328:0.992157 329:-0.756863 330:-1 331:-1 332:-1 333:-1 334:-1 341:-1 342:-1 343:-1 344:-1 345:-0.545098 346:0.803922 347:-1 348:-1 349:-1 350:-1 351:-1 352:-1 353:-1 354:-1 355:-0.921569 356:0.992157 357:-0.0588235 358:-1 359:-1 360:-1 361:-1 362:-1 369:-1 370:-1 371:-1 372:-1 373:0.168627 374:0.803922 375:-1 376:-1 377:-1 378:-1 379:-1 380:-1 381:-1 382:-1 383:-0.937255 384:0.866667 385:0.654902 386:-1 387:-1 388:-1 389:-1 390:-1 397:-1 398:-1 399:-1 400:-1 401:-0.113725 402:0.803922 403:-1 404:-1 405:-1 406:-1 407:-1 408:-1 409:-1 410:-1 411:-1 412:0.278431 413:0.709804 414:-0.968627 415:-1 416:-1 417:-1 418:-1 425:-1 426:-1 427:-1 428:-1 429:-0.545098 430:0.803922 431:-1 432:-1 433:-1 434:-1 435:-1 436:-1 437:-1 438:-1 439:-1 440:-0.427451 441:0.992157 442:-0.552941 443:-1 444:-1 445:-1 446:-1 453:-1 454:-1 455:-1 456:-1 457:-0.545098 458:0.803922 459:-1 460:-1 461:-1 462:-1 463:-1 464:-1 465:-1 466:-1 467:-1 468:-0.427451 469:0.827451 470:-0.796078 471:-1 472:-1 473:-1 474:-1 481:-1 482:-1 483:-1 484:-1 485:-0.545098 486:0.960784 487:-0.552941 488:-1 489:-1 490:-1 491:-1 492:-1 493:-1 494:-1 495:-0.992157 496:0.192157 497:0.380392 498:-1 499:-1 500:-1 501:-1 502:-1 508:-1 509:-1 510:-1 511:-1 512:-1 513:-0.670588 514:0.913725 515:0.0588235 516:-1 517:-1 518:-1 519:-1 520:-1 521:-1 522:-1 523:-0.921569 524:0.992157 525:-0.0588235 526:-1 527:-1 528:-1 529:-1 530:-1 536:-1 537:-1 538:-1 539:-1 540:-1 541:-1 542:0.0117647 543:0.937255 544:-0.819608 545:-1 546:-1 547:-1 548:-1 549:-1 550:-1 551:-0.521569 552:0.913725 553:-0.772549 554:-1 555:-1 556:-1 557:-1 564:-1 565:-1 566:-1 567:-1 568:-1 569:-1 570:-0.639216 571:0.992157 572:0.286275 573:-0.866667 574:-1 575:-1 576:-1 577:-1 578:-0.701961 579:0.733333 580:0.113725 581:-1 582:-1 583:-1 584:-1 585:-1 592:-1 593:-1 594:-1 595:-1 596:-1 597:-1 598:-0.929412 599:0.435294 600:0.992157 601:0.0588235 602:-0.639216 603:-1 604:-0.968627 605:0.0431373 606:0.945098 607:0.521569 608:-1 609:-1 610:-1 611:-1 612:-1 620:-1 621:-1 622:-1 623:-1 624:-1 625:-1 626:-1 627:-0.921569 628:0.45098 629:1 630:0.921569 631:0.772549 632:0.788235 633:0.992157 634:0.207843 635:-0.952941 636:-1 637:-1 638:-1 639:-1 640:-1 649:-1 650:-1 651:-1 652:-1 653:-1 654:-1 655:-1 656:-0.898039 657:-0.45098 658:0.482353 659:0.992157 660:0.380392 661:-0.270588 662:-0.960784 663:-1 664:-1 665:-1 666:-1 667:-1 678:-1 679:-1 680:-1 681:-1 682:-1 683:-1 684:-1 685:-1 686:-1 687:-1 688:-1 689:-1 690:-1 691:-1 692:-1 693:-1 694:-1 711:-1 712:-1 713:-1 714:-1 715:-1 716:-1 
0.5704948266998219 68:-1 69:-1 94:-1 95:-1 96:-1 97:-1 98:-1 99:-1 100:-0.984314 101:-0.560784 102:-0.560784 103:-0.801047 104:-1 105:-1 106:-1 107:-1 108:-1 120:-1 121:-1 122:-1 123:-1 124:-1 125:-0.984314 126:-0.976471 127:-0.984314 128:0.0352941 129:0.984314 130:0.984314 131:0.756863 132:-0.435294 133:-1 134:-1 135:-1 136:-1 147:-1 148:-1 149:-1 150:-1 151:-0.843137 152:0.286275 153:0.403922 154:-0.027451 155:-0.858824 156:0.529412 157:0.294118 158:0.0509804 159:0.819608 160:0.921569 161:-0.105882 162:-1 163:-1 164:-1 165:-1 174:-1 175:-1 176:-1 177:-1 178:-0.890196 179:0.294118 180:0.984314 181:0.843137 182:0.145098 183:-1 184:-0.890196 185:-1 186:-1 187:-0.6 188:0.513725 189:0.905882 190:-0.129412 191:-1 192:-1 193:-1 202:-1 203:-1 204:-1 205:-0.653543 206:0.796078 207:0.921569 208:-0.160784 209:-0.960784 210:-1 211:-1 212:-1 213:-1 214:-1 215:-1 216:-0.694118 217:0.356863 218:0.796078 219:-0.850394 220:-1 221:-1 222:-1 229:-1 230:-1 231:-1 232:-0.733333 233:0.780392 234:0.984314 235:0.262745 236:-1 237:-1 238:-1 239:-1 240:-1 241:-1 242:-1 243:-1 244:-1 245:-0.443137 246:0.968627 247:0.568627 248:-0.96063 249:-1 250:-1 257:-1 258:-1 259:-1 260:0.0787402 261:0.984314 262:0.788235 263:-0.87451 264:-1 265:-1 266:-1 267:-1 268:-1 269:-1 270:-1 271:-1 272:-1 273:-1 274:0.576471 275:0.984314 276:-0.354331 277:-1 278:-1 285:-1 286:-1 287:-0.0551181 288:0.952941 289:0.898039 290:-0.678431 291:-1 292:-1 293:-1 294:-1 295:-1 296:-1 297:-1 298:-1 299:-1 300:-1 301:-1 302:-0.678431 303:0.984314 304:0.647059 305:-0.929134 306:-1 313:-1 314:-0.661417 315:0.905882 316:0.984314 317:-0.0588235 318:-1 319:-1 320:-1 321:-1 322:-1 323:-1 324:-1 325:-1 326:-1 327:-1 328:-1 329:-1 330:-0.929412 331:0.309804 332:0.984314 333:-0.574803 334:-1 341:-1 342:0.204724 343:0.984314 344:0.490196 345:-0.992157 346:-1 347:-1 348:-1 349:-1 350:-1 351:-1 352:-1 353:-1 354:-1 355:-1 356:-1 357:-1 358:-1 359:-0.427451 360:0.976471 361:-0.574803 362:-1 369:-1 370:0.843137 371:0.952941 372:-0.435294 373:-1 374:-1 375:-1 376:-1 377:-1 378:-1 379:-1 380:-1 381:-1 382:-1 383:-1 384:-1 385:-1 386:-1 387:-1 388:0.913725 389:0.0551181 390:-1 397:-1 398:0.992157 399:0.419608 400:-1 401:-1 402:-1 403:-1 404:-1 405:-1 406:-1 407:-1 408:-1 409:-1 410:-1 411:-1 412:-1 413:-1 414:-1 415:-1 416:0.921569 417:0.2 418:-1 425:-1 426:0.639216 427:0.513725 428:-0.678431 429:-1 430:-1 431:-1 432:-1 433:-1 434:-1 435:-1 436:-1 437:-1 438:-1 439:-1 440:-1 441:-1 442:-1 443:-1 444:0.560784 445:0.560784 446:-1 453:-1 454:0.207843 455:0.984314 456:-0.0823529 457:-1 458:-1 459:-1 460:-1 461:-1 462:-1 463:-1 464:-1 465:-1 466:-1 467:-1 468:-1 469:-1 470:-1 471:-1 472:0.137255 473:0.984314 474:-1 481:-1 482:-0.47451 483:0.984314 484:0.929412 485:-0.756863 486:-1 487:-1 488:-1 489:-1 490:-1 491:-1 492:-1 493:-1 494:-1 495:-1 496:-1 497:-1 498:-1 499:-0.262745 500:0.866667 501:0.294118 502:-1 508:-1 509:-1 510:-0.866667 511:0.498039 512:0.984314 513:0.427451 514:-0.803922 515:-1 516:-1 517:-1 518:-1 519:-1 520:-1 521:-1 522:-1 523:-1 524:-1 525:-1 526:-0.309804 527:0.843137 528:0.984314 529:0.822222 530:-1 536:-1 537:-1 538:-1 539:-0.866667 540:0.780392 541:0.992157 542:0.654902 543:-0.341176 544:-0.411765 545:-0.764706 546:-1 547:-1 548:-1 549:-1 550:-1 551:-0.811765 552:-0.647059 553:0.301961 554:0.976471 555:0.992157 556:-0.160784 557:-0.921875 564:-1 565:-1 566:-1 567:-1 568:-0.866667 569:0.513725 570:0.984314 571:0.984314 572:0.984314 573:0.905882 574:0.482353 575:0.482353 576:0.482353 577:0.482353 578:0.482353 579:0.819608 580:0.992157 581:0.984314 582:0.615686 583:-0.294118 584:-0.976096 585:-1 592:-1 593:-1 594:-1 595:-1 596:-1 597:-0.960784 598:-0.388235 599:0.254902 600:0.32549 601:0.631373 602:0.631373 603:0.984314 604:0.984314 605:0.984314 606:0.968627 607:0.631373 608:0.560784 609:-0.388235 610:-0.960784 611:-1 612:-1 620:-1 621:-1 622:-1 623:-1 624:-1 625:-1 626:-1 627:-1 628:-1 629:-1 630:-1 631:-0.576471 632:-0.576471 633:-0.576471 634:-0.6 635:-1 636:-1 637:-1 638:-1 639:-1 640:-1 649:-1 650:-1 651:-1 652:-1 653:-1 654:-1 655:-1 656:-1 657:-1 658:-1 659:-1 660:-1 661:-1 662:-1 663:-1 664:-1 665:-1 666:-1 667:-1 678:-1 679:-1 680:-1 681:-1 682:-1 683:-1 684:-1 685:-1 686:-1 687:-1 688:-1 689:-1 690:-1 691:-1 692:-1 693:-1 694:-1 711:-1 712:-1 713:-1 714:-1 715:-1 716:-1 
